GIS
1
0.0
8
O
I-ORG
I-MISC
I-PER
I-LOC
B-LOC
B-MISC
B-ORG
53
3929 0
117 0 1
26 0 1 2
1 0 1 2 3
70 0 1 2 3 4
9 0 1 2 3 4 5
3 0 1 2 3 4 5 6
10 0 1 2 3 4 5 6 7
21 0 1 2 3 4 6
2 0 1 2 3 4 6 7
4 0 1 2 3 4 7
1 0 1 2 3 5
19 0 1 2 4
1 0 1 2 4 6
1 0 1 2 6
4 0 1 3
17 0 1 3 4
1 0 1 3 6
17 0 1 4
1 0 1 4 5
72 0 2
5 0 2 3
3 0 2 3 4
4 0 2 4
3 0 2 6
18 0 3
7 0 3 4
17 0 4
2 0 6
496 1
70 1 2
4 1 2 3
3 1 2 3 4
36 1 2 4
3 1 2 4 6
2 1 2 6
59 1 3
22 1 3 4
198 1 4
1 1 4 5
1 1 6
1 1 7
141 2
11 2 3
3 2 3 4
2 2 3 6
15 2 4
5 2 6
684 3
28 3 4
215 4
1 5
4 7
6390
half
shooting
guards
pick
"
$
%
spreading
investment
*
require
-
47th
0
10.6
10.5
4
triple
5
6
7
8
9
;
=
?
SEP
newspaper
SER
B
role
C
D
G
roll
I
turn
gold
result
opposition
golf
same
W
X
commission
after
[
]
hand
resume
a
ordered
b
c
eating
blood
m
straight
entering
halt
sale
v
information
reopened
good
tie
suffered
serious
gone
walked
10-day
Secretary-General
provided
state-run
provides
hard
tonne
quarters
multiple
interbank
room
better
allegations
suitable
taking
prevWordPOS=PDT
semifinalist
voters
investigators
gained
compatriot
struck
hospitalised
block
flow
order
reform
coach
women
woman
save
protection
scrap
top
2-0
too
2-1
2-2
have
2-6
question
drugs
picture
2.1
FRIENDLY
2.5
rose
2.6
findings
cow
owns
representative
circumstances
including
200
markets
202
And
violation
try
bombing
became
effective
times
212
muscle
says
direction
That
ammunition
8520
comments
Their
probe
220
stable
activities
abducted
incident
caught
STANDINGS
concern
worked
state
accuses
offering
shots
cup
sweeping
monitors
cut
probably
batters
4,000
two
moment
worries
attack
reported
10-15
ankle
think
occurred
accused
replaced
team
services
They
marketing
266
speech
83rd
cabinet
thing
margins
cwt
registering
domestic
Aug
278
There
paying
This
starts
stability
budget
eastern
glass
widely
280
These
riyal
scientist
farmers
house
Scoreboard
lifting
hours
start
fallen
short
finance
required
climb
measures
70th
enter
savings
dates
hostage
prevWordBIO=B-ADVP
bright
planned
unknown
blown
hanging
friendly
tell
shows
shown
infusion
trucks
day
1980s
raising
island
water
formal
elsewhere
Sept
dated
11-8
11-6
built
therapy
heavily
third
build
11.0
2410
further
demands
quarter-finals
areas
parliament
finds
reimbursement
railway
announcement
7,000
fined
going
banks
impact
POS="
MOTOR
average
treatment
bodies
investments
35th
journal
hotel
term
acquisition
THU
accords
business
staff
possible
right
partly
yuan
stage
returning
maximum
unseeded
under
did
quarter
die
fears
div
She
later
passport
livestock
airliner
highway
Shr
businessman
possibly
15-12
15-11
seasons
15-10
test
journey
finally
remained
0.20
publicly
pro-soccer
final
Sir
loan
Six
back
training
states
pound
load
ferry
company
Squad
billions
relay
unc
grand
concerns
prosecutors
schedule
baby
unq
grant
showing
spokeswoman
qualified
lunch
helping
attempt
0.50
December
balance
3-0
Despite
3-1
3-2
pitch
3-6
weakening
go-ahead
researchers
made
'm
being
contents
qualifier
3.2
warned
3.5
3.8
dog
3.9
status
**
trading
FRIDAY
scattered
government
known
nurse
3/4
coalition
crime
stand
knows
forward
+1
+3
+4
+5
300
309
use
subject
main
opposes
revenue
grain
credit
intensive
--
waste
baht
includes
establishment
streak
323
325
326
..
ball
threats
make
included
opposed
TUE
questioned
stake
due
threat
350
observed
353
presidency
cholesterol
band
1.
released
10
boxes
12
13
14
15
17
18
19
hijacking
allied
benefit
prevWordBIO=I-SBAR
highest
regained
2.
20
21
22
23
24
25
26
postponement
27
28
29
industry
long
BIO=B-ADVP
3.
30
workers
cuts
32
But
33
34
35
36
37
star
38
39
84th
bans
many
382
stay
controlled
389
increasing
progress
4.
40
41
42
43
44
45
46
47
abortion
militia
48
49
10.10
numbers
rapid
seven
Last
398
5.
50
51
52
53
54
55
admitted
56
surprise
57
58
59
Deputy
sealed
seeds
TUESDAY
invited
complaints
look
grounds
achieving
murdered
6-
6.
60
61
62
63
64
65
66
67
68
Prime
69
Secretary
needed
mass
speed
auction
common
interest
7.
themselves
70
71
72
73
74
75
77
78
79
winning
politician
LATEST
landing
8.
80
Every
81
formula
step
82
83
revolt
85
mark
86
tribute
base
87
88
ceasefire
trend
loss
9.
lost
90
91
MANAGER
93
preliminary
work
lose
cattle
mate
delays
registration
missionary
word
stated
love
secret
across
qualifying
mortgage
set-top
bullish
gathering
opinion
soldier
ONE-DAY
CRICKET
portfolio
SCHEDULE
spell
+91-22-265
boxcar
mining
lows
visitors
preparing
12.0
provision
seems
Chief
profit-taking
scientific
winter
platform
CONTENTS
walking
spend
Since
February
advantage
spent
instead
shipments
communist
exception
hands
year
allowed
via
understanding
near
victims
economy
restructuring
community
version
planning
AT
stop
least
immediately
resignation
Played
swimming
As
At
BY
agreed
computers
representing
DIV
By
severe
rounds
instructions
Chg
notes
evidence
sprint
official
spring
autonomy
assessment
leave
minister
need
often
newspapers
hijackers
tests
loose
sanctions
private
Soyoil
10th
complained
During
engine
4-0
4-1
4-2
end
4-3
GB
packed
lines
4-6
fails
chief-of-staff
H1
special
noted
vouch
environment
undertaking
4.4
tries
slightly
education
called
DNS
investors
vs.
newly
tried
INDICATORS
outbreak
narrow
He
IN
programmes
KEEPS
400
Top
seventh
Senior
If
weapons
singer
It
asked
rights
416
share
climbed
television
Amount
2nd
chairman
KV
sharp
THIRD
cent
trial
controllers
links
trafficking
below
driving
61-2
Balance
NO
unexpectedly
financial
elderly
forma
running
eve
ON
declared
rates
transport
rated
Of
strategy
PM
forms
On
long-term
Q2
maintain
companies
pounds
remain
expected
countries
85th
monitoring
eye
himself
wanted
deposit
another
journalists
centred
envoy
black
consensus
such
showers
recovered
TO
So
Other
metres
penalties
administration
sterling
remains
arriving
operator
white
counterpart
huge
To
UP
superb
might
FINAL
servants
deposed
LAST
leads
Up
fields
next
import
conclusion
organisations
supporting
factor
postponed
news
60,000
green
race
effectively
was
warehouses
war
futures
5.50
grew
We
way
arable
attempted
window
secretary-general
play
fought
quickly
taxes
decide
issues
far
prostitute
YR
issued
plan
Shares
double
suicide
seeded
Yr
suit
study
brokers
demonstrators
fever
burned
gain
reliever
receiving
financing
shareholders
wet
great
happened
pleased
sides
economic
statistics
arrest
looks
EDT
few
Diplomats
crackdown
rain
hunt
rail
BEAT
opened
produced
outside
effect
producer
Fall
sugar
who
option
37th
politics
game
crucial
contribute
why
died
candidate
win
lawyer
soccer
Dec
barter
From
kerosene
various
administrative
Summary
attention
visit
denied
reduction
24-year-old
parent
voted
losing
rand
fix
addition
doubts
24th
sure
grow
an
former
as
looking
formed
hurt
be
virus
day-night
accusing
systems
by
panel
Did
foot
ca
scoring
charge
outstanding
keeping
food
fly
withdrew
partner
votes
voter
interview
observers
11th
language
dn
sites
Friday
attacks
won
rare
5-1
5-2
5-7
which
pesetas
never
piece
5.0
fob
END
5.5
5.6
watching
jailed
pinch-hitter
perhaps
rate
5/8
digital
recalled
go
form
500
504
he
placed
tabulate
EPS
welfare
appeared
four
else
if
zinc
likely
dismissed
it
aimed
announce
gave
become
Dr.
inflation
settlement
sending
kg
km
immigration
knew
knee
places
542
lb
fun
political
while
photos
second
that
faster
picked
555
than
me
limit
locked
mm
contest
feeling
my
plus
expansion
collided
entry
fiscal
postpone
heat
student
terrorists
mixed
storage
head
imported
reserve
hear
allocated
or
sports
86th
families
sitting
nation
AFTER
registered
extremely
599
BREAKS
73rd
hundreds
recent
January
they
suspension
them
then
seat
attorney
33-26
oppose
1,500
commentary
seed
executed
seek
seen
organisers
poisoning
so
exported
issuing
unions
decision
necessary
starter
STAGE
started
neighbours
closes
closer
single
paedophile
cement
closed
to
commercial
joint
reasonable
rules
loaded
first-half
ruled
military
up
reluctant
us
waters
usual
this
thin
remarkable
sees
failure
60th
quake
know
kilometres
vs
suggesting
changed
changes
MATURITY
we
destitute
gap
wo
gas
slight
previous
reading
planting
compensation
kilometre
kidnapping
held
Income
type
troops
beyond
terms
yr
militant
phase
teams
atrocities
contract
tonnes
elections
churches
exact
force
surrounded
south
refunds
get
continues
course
power
sell
premiums
continued
suspect
help
forcing
massive
10,000
ended
located
38th
sound
FROM
sales
hanged
SUMMARY
CORRECTED
create
criminal
PREMIER
stranded
sent
addressed
WIN
send
here
concrete
security
station
disappointing
costs
factory
medals
implementation
smoke
follow
intent
revenues
factors
treaty
edged
skies
ounce
without
youth
civilians
introduced
POS=WP
audience
sexually
much
800,000
defence
weekly
grenades
6-0
6-1
6-2
6-3
boosted
6-4
6-5
6-7
committed
committee
sets
defends
union
6.0
6.1
returned
6.5
adopted
standard
reports
BASKETBALL
got
area
murder
shipment
FOR
moisture
lack
success
authority
cleared
batting
young
negotiations
complaint
lady
analyst
named
foreigners
considered
focus
delivered
favorable
entire
changing
wrist
approach
decisive
Turnover
wage
passengers
understand
suspended
intelligence
winner
million
strongly
bulk
champion
larger
gun
wait
riders
guerrilla
walkover
Gluten
particularly
heading
discussed
names
framework
+301
bacteria
almost
suits
associate
earlier
whether
shelling
4th
However
basis
affected
army
arms
governor
basic
5000
unite
replied
bush
policies
units
pursue
ties
busy
extra
land
tied
consecutive
conduct
walk
refusing
laps
unidentified
advertising
crowds
coaching
arrangements
events
discussing
a.m.
chaos
want
forecast
rifles
difference
must
resign
hitting
accident
5040
incompatible
found
seeding
currency
limits
disarmament
beating
politicians
nextWordBIO=B-SBAR
month-end
1,600
reverts
attend
consortium
nationals
goods
voting
had
ALERT
accounting
secure
late
school
things
has
last
weight
allegedly
citing
disrupted
exports
15-9
impossible
effort
wave
yesterday
NOTES
weapon
stronger
ends
15-8
15-7
15-6
15-5
steady
vote
early
15-2
disease
yen
yet
insurgents
wages
infrastructure
initially
time
Fax
applications
electoral
happy
Scores
governments
GDP
her
having
laws
armoured
1500
doubles
passenger
tiny
pornographic
doubled
4-95
confirmed
vowed
tourist
ways
consistent
reverse
tennis
earnings
garden
small
before
aviation
him
hit
his
beat
potential
auctions
Order
30,000
repeatedly
Officials
history
26th
square
repairs
twice
camps
colony
values
point
debut
diverted
banned
Only
meal
mean
approve
CYCLING
nominated
settlements
13th
been
beef
advance
PRO-BASEBALL
7-1
killer
7-2
7-3
7-4
you
7-5
7-6
opportunity
active
court
subsidiary
POS=WP$
deals
7.0
firms
7.5
hog
cited
abuses
hot
Gen'l
how
innings
assembly
dragged
march
blast
cargoes
meet
answer
calls
700
restored
Monday
putting
sometimes
questions
promise
reply
coordinator
For
blame
carrying
beginning
waiting
softer
grandson
killed
although
diplomat
president
ransom
dropped
action
fired
suspected
accompanied
fires
reached
asks
acting
first-round
deliver
headed
eight
products
Final
illness
could
strike
5th
marks
able
THURSDAY
concerned
short-term
solution
opponent
nextWordPOS=RBS
international
citizen
difficult
friends
peasants
header
present
problems
arrested
borders
best
75th
certainly
spokesman
concerning
lions
regulation
Fuel
suburb
hectares
feared
quoted
cover
defenders
based
something
equalised
religious
fact
bases
Under
schoolgirl
actually
face
showed
After
ratio
refugees
independence
guilders
4.50
finding
elected
1996/97
rule
equaliser
POS=LS
521-8
propaganda
meningitis
comment
humanitarian
guns
14.12
erupted
discussions
Summaries
fair
safety
Captain
fail
diesel
seize
church
isolated
foreign
fall
appearance
fake
runs
first
fewer
clearly
poll
spite
from
SUNDAY
Goalkeepers
finished
manufacture
speaker
replacement
14th
death
advice
according
denounced
operations
paper
winds
1673
value
8-6
verified
staged
right-field
fans
stages
fishermen
fleeing
growth
8.0
POS=EX
resolution
poor
farm
unlikely
virtually
excellent
fairly
pool
airport
charges
protesters
15,000
800
municipal
charged
shortly
providing
weeks
fate
insistence
overs
pork
aggressive
close
supporters
Gov
Chairman
fast
nine
10,650,407
organised
controls
rural
HRW
post
its
respect
article
port
income
buyers
production
united
directors
choose
miles
overnight
previously
852
striker
strikes
democratic
perpetrators
bills
859
Attendance
reigning
improvement
pushed
college
Ambassador
nervousness
number
property
nothing
testing
distributed
tough
silver
city
confident
local
SCORES
yield
1995/96
decisions
filled
FIRST
removed
powerful
shed
YEAR-AGO
points
copies
859-1610
maintained
border
landless
read
derailed
touch
real
prompted
April
communists
unit
finals
63rd
monthly
badly
confiscated
five-run
today
construction
parliamentary
saying
organising
radical
looked
minute
application
prevWordBIO=I-LST
rebels
formally
reason
Obligation
ship
acts
annual
exclusive
using
containing
investigating
completed
demand
photographs
letter
handed
acquire
worth
taken
dividend
takes
popular
broken
missionaries
broker
armed
liquidity
debate
either
jet
those
estimates
barges
lifted
telephone
significant
longer
parties
worst
selling
leaving
distance
5,000
prospects
show
shot
killings
street
estimated
Her
rebel
bounce
largely
frost
gene
LEADING
28th
speculated
refined
style
settle
vehicle
freedom
bilateral
nomination
His
Sheikh
shut
bonds
fielder
15th
influence
....
9-7
crisis
Tries
important
disciplinary
detective
veteran
daily
job
daughter
largest
Princess
investigations
captain
administrator
billion
sheet
sheep
rest
original
prosecutor
kingdom
gets
afternoon
900
investigation
front
flights
You
customer
plane
equivalent
projects
offer
diplomatic
complex
plans
plant
drive
Archbishop
sixth
servant
Sales
offered
civil
national
customers
Speaker
jobs
founded
medicine
entered
difficulties
941
refuelled
Aggregate
developed
contact
champions
searched
parts
western
duties
however
visiting
sources
trained
signs
related
captured
views
Rice
prevWordPOS=$
outperform
directed
historic
SCOREBOARD
farmer
prompt
merger
tunnel
elaborate
Nearly
crowd
cycling
output
totalled
Penalties
warrants
prevWordPOS=.
majority
join
crown
sentence
realised
director
shareholder
ordinary
Earlier
lung
reporters
brought
alive
pursuit
payments
tournament
emerged
thinking
world
Standings
everything
programme
side
bread
pence
creditors
break
missed
restaurant
dictatorship
century
hide
report
powers
married
sign
cotton
sclerosis
high
split
falls
8,000
expressed
different
directly
officially
level
adjusted
64th
establish
arrests
focused
parents
birthday
Before
scorer
scores
Issuer
total
Scorers
consumers
fours
consumer
plays
economist
social
51st
sells
raised
cross
control
demanding
declined
lobby
scored
overthrow
threatening
commanding
behalf
scene
WEDNESDAY
20-month
raises
injury
publishing
placings
assemblies
accept
northwestern
two-year
stopping
access
nationalists
26-year-old
key
stopped
launch
confirm
cricket
fourth
vast
available
Analysts
sector
dismal
banning
especially
once
figures
records
pending
What
throughout
conflicts
strokes
criticised
technology
consulate
litigation
compromise
backed
reach
between
lending
following
450,000
drivers
16th
overseas
weak
kms
seeing
nextWordBIO=B-PP
blocked
place
regular
informed
dispute
offenders
lead
hits
expect
Asked
site
When
highlights
leaders
TENNIS
assets
sixes
should
only
crashed
justice
officers
9/16
kph
individual
loans
accepted
interim
person
testimony
week
ready
studies
player
greatest
manufacturers
limited
'll
match
While
played
pills
explosive
spoke
surgeon
owners
approved
would
legs
customs
solid
reserves
relegated
strategist
size
left
elect
example
balances
quiet
raids
policy
resigned
address
destroyed
police
fifth
surgery
violent
Its
're
export
others
making
sectors
check
8th
relatives
onto
hijacked
mines
survivors
supposed
226-5
flown
flows
November
pilot
approval
41.0
versus
ATHLETICS
well
personnel
handling
outlook
Organisers
BIO=B-SBAR
gains
inventories
've
cooperation
went
considering
custody
rains
bringing
privatization
schools
spots
orders
southeast
respectively
matter
noise
product
5452
premier
produce
walks
pitting
capital
minor
fuel
marijuana
employee
explosives
helicopters
biggest
POS=RBR
function
west
quite
employer
lap
tower
traffic
pitched
less
suspects
successive
condition
were
ceremony
improve
Death
lbw
university
floor
possibility
wounded
opening
doctor
industrial
sport
led
diplomats
supply
leg
lei
mountain
pact
let
separatist
adviser
press
cargo
two-run
night
pace
dystrophy
each
items
document
killing
dollars
dystrophin
networks
does
situation
clause
3.75
timetable
producers
homered
prayer
detained
quit
demanded
insurance
southwest
medical
prix
source
unable
homes
weakened
homer
acquired
tension
chest
involves
doubt
athletes
develop
nurses
involved
dominated
district
overall
1949
fixed
1948
1947
full
referendum
away
painful
n.a
harvest
pain
suspicion
purchase
titles
pair
manage
equal
MONDAY
fund
paid
1968
1967
three
17th
1974
season
DOCUMENT
controversial
deputy
threw
batter
players
roads
1987
judicial
1986
1984
provide
1980
bids
1989
1988
100,000
9000
1998
lot
1997
computer
1995
premium
1994
1993
low
1991
merely
1999
meant
means
aides
initial
centre
fellow
unbeaten
interests
quick
husband
experience
launched
strikers
Eight
commander
renegade
checked
affair
jewelry
minutes
illegal
done
August
residents
8-15
part
east
relief
boycott
washed
seeking
someone
earn
four-day
asylum
surged
record
provinces
pass
past
bill
whose
easy
senior
Note
BASEBALL
October
Jul
mine
mind
retailer
apartheid
leftist
inch
added
emergency
down
launching
incumbent
adding
club
legal
signal
regarding
month
acres
rather
importance
title
papers
With
miss
plantation
nuclear
human
Leading
permission
RACING
faction
beach
Halftime
CONFIRMED
supplies
1996-08-24
1996-08-23
1996-08-22
1996-08-21
letters
fear
1996-08-29
1996-08-28
1996-08-27
4221
1996-08-26
1996-08-25
signed
printed
field
post-war
served
wilderness
opens
1996-08-30
coached
upset
targets
mad
man
may
DRAW
reforms
feet
bonus
defending
feel
Result
convene
year-on-year
residence
abduction
equipment
pressure
bases-loaded
feed
men
repeat
met
no-confidence
barley
tankan
exactly
surveyed
wicket
MATCH
about
danger
Extras
crash
granted
above
stick
goals
injunction
beaten
received
substantial
quality
avoided
animal
boost
shared
March
association
believe
shares
fell
into
resuming
holes
stiff
though
appeal
appear
definitely
associated
9373-1800
holds
experts
open
forced
suffering
project
tobacco
felt
mln
50,000
forces
flying
proposals
secured
allow
polls
18th
stocks
activists
performances
recently
hostages
Neither
renewed
money
healthy
claimed
whole
attempts
profits
still
sprinter
mph
linking
toward
books
among
internal
specified
believes
federal
believed
include
aged
genocide
SOCCER
cutting
wickets
defender
injuries
prepared
divorced
midday
offset
capture
failed
appointed
DATE
tabulated
+31
8.30
+33
NOTE
talks
riots
TOTAL
assistant
+44
command
+49
three-game
revised
leading
urge
July
because
moving
RESEARCH
agreement
dealing
mayor
bronze
aboard
returns
WINS
June
forest
optimistic
sweep
slam
anniversary
republic
two-time
prevWordPOS=NN|SYM
whales
artillery
surrender
attributable
wrote
originally
jail
PRESS
kuna
volume
materials
rises
technical
ride
responsible
medal
rice
WITH
visited
attacked
family
atmosphere
career
told
release
judge
similar
partnership
parrots
thousands
crossing
Just
Some
driver
MAY
54th
holiday
crude
manufacturer
holders
deficit
stores
veterinary
bushel
firing
capped
tops
jars
volatility
losses
net
new
took
positions
mandate
20,000
seedings
reaching
media
around
pesos
stepped
cannabis
DIGEST
specific
SECOND
territory
developments
shift
professional
securities
nil
decided
shoulder
0800
hurdles
toss
slow
three-year
militants
mosque
maybe
rallied
students
helicopter
expectations
riot
tour
persuade
stayed
supported
resulted
documents
breakaway
19th
research
MLN
houses
wounds
town
engineering
boats
girl
airports
yards
rallies
Parliament
involving
blind
January-June
September
nearly
nor
not
now
statement
Tuesday
lived
delivery
election
MON
bourse
what
risk
rise
container
when
nearby
exiled
catch
promising
give
lives
Local
stations
MPs
determined
farms
sentences
direct
sentenced
markka
heads
certain
levels
board
nun
10-year
used
earned
whale
right-wing
12-15
otherwise
marked
market
effects
keep
forecasts
imprisonment
90th
alone
3,000
along
rocks
designed
RESULTS
handful
critics
Today
contained
uses
bring
promoted
equity
+7095
giant
league
BALANCE
peace
competitive
ordering
rescued
search
communications
insurer
whom
franc
44.2
JUNE
pullout
mounted
Thursday
girls
fighters
strikeouts
warning
exclude
42nd
mainland
6,000
burst
carry
venue
clash
mistakes
trouble
class
reporting
attended
Although
kept
management
very
congress
delayed
Traders
javelin
issue
lower
metal
index
separatists
decree
continuing
turned
eventually
camera
seemed
draw
2.20
off
generally
complete
edge
ruling
widespread
prevWordBIO=I-CONJP
chronic
nextWordBIO=B-ADVP
Dividend
months
follows
headquarters
five-year
AUGUST
survey
Playing
Match
oil
fight
brief
pretty
recover
determine
17-14
voluntarily
drew
remarks
strategic
promised
speaking
province
estimate
promises
breaking
proposal
registrations
old
settled
opponents
ancient
Close
starting
checking
conservative
conference
activity
prevWordBIO=B-SBAR
blew
three-test
tanks
one
cents
pull
buying
dealer
pulp
country
aide
willing
---
briefing
details
Another
treated
praised
ensure
exploded
epidemic
clocked
buses
towns
region
support
drop
cold
life
expects
roubles
cases
regime
Commissioner
TITLE
software
chains
competition
none
rupees
problem
closing
connection
presence
seized
abandoned
wife
makers
profitable
come
push
lift
handgun
sexual
nextWordPOS=NN|SYM
A-rated
distribution
ACTUAL
our
out
capacity
More
noon
dark
sixth-inning
According
7-15
cool
unnamed
minimum
date
reveal
data
corn
own
murdering
RECORD
drug
blow
activist
re-election
development
like
Operating
ending
efforts
proposed
council
fraud
embassy
ground
Both
note
penalty
line
exile
link
riding
recovery
intends
stories
cost
aims
will
confidence
fishing
dictator
groups
allowing
Witnesses
compliance
Also
challenge
semifinals
snap
your
remote
rider
these
begins
prison
wins
coup
analysis
apparent
wing
arrives
flight
independent
ahead
achieve
yellow
alleged
talking
arrived
lira
editorial
faced
blue
32.0
days
faces
discuss
liberal
sharply
wish
belonging
1-106
par
invitation
homers
pay
list
rivals
About
candidates
spending
claims
child
legislature
56th
remove
fatal
Over
live
pct
victory
extradition
with
service
there
unpaid
per
period
birth
slowly
120,000
ever
even
meetings
indication
engaged
soybeans
injured
Among
violence
bought
spinal
requiring
policemen
imposed
30th
members
stock
Mafia
heroin
surge
everyone
snapped
guaranteed
Three
rising
initiated
unclear
cause
intended
attending
working
victim
skull
department
garlic
chief
aircraft
accord
followed
despite
policeman
teenagers
meeting
landed
displayed
began
violations
inning
actions
CALL
Announcement
giving
routine
BIO=I-CONJP
reorganization
lunches
escape
trillion
gives
latest
receive
surplus
theft
...
standing
representatives
friendship
disappointed
continue
one-day
offers
given
crimes
freed
secrets
casualties
.01
.02
second-quarter
Not
guilty
Nov
Now
playing
employees
coastal
goalkeeper
asking
anything
retired
pipes
pts
endorse
.450
embargo
.457
CAPS
assassination
.470
put
identified
.466
.461
options
.469
struggle
meets
peso
OUT
junior
light
apparently
Current
barred
semifinal
barrel
.496
permanent
travel
choice
defeated
replace
FORECAST
major
worldwide
funds
consider
group
imports
gross
rugby
tree
shutdown
LISTING
request
their
percent
general
process
requirements
clear
eighth
clean
listed
neither
RESULT
account
mostly
hogs
trio
trip
hunting
rally
jump
prime
happen
festival
sparked
venture
population
route
33.0
trying
millions
negotiated
comes
soil
bottle
prevWordPOS=LS
involvement
hearing
transition
Premier
series
prevWordBIO=B-PP
represent
goodwill
PAY
robbers
robbery
57th
hold
trail
ISSUE
prior
rubber
talk
train
prevWordPOS=EX
2001
planes
take
immediate
taka
prevWordBIO=B-VP
relatively
PCT
some
session
newsdesk
additional
apiece
standings
passed
just
four-year
owner
sold
midnight
solo
44th
tracks
home
hole
existing
championships
material
owned
iron
explain
Oct
9,000
hope
soon
executive
stadium
demolition
3311812-4
underwent
protest
heavy
cancelled
painted
quarterly
summer
Still
member
incidents
+0.05
together
within
health
gathered
positive
agents
prospect
refugee
evening
return
serve
intercepted
bowled
fine
find
host
selected
drove
seriously
film
fill
heart
rankings
task
scientists
ousted
true
position
since
sentiment
------------------------
dangerous
appears
hour
leadership
ranked
magazines
troubled
heard
experienced
falling
sought
extraordinary
guerrillas
measles
fence
coming
firm
.500
fire
.504
brokerage
taxi
except
.519
.512
kidnapped
prominent
comics
global
unless
plants
.527
operating
.523
irregularities
bribes
denotes
people
.531
hat-trick
.538
ranking
operation
.534
reputation
inside
mainly
.542
runner-up
.543
leaves
provincial
CBOT
five
announced
squad
unlisted
campaign
conflict
kills
analysts
installed
reasons
traders
lawsuit
scheduled
father
swept
wants
three-run
every
again
stockpile
PUT
SUMMARIES
prefix
negotiator
during
price
games
SATURDAY
Bowling
briefly
reduced
agree
resistance
welcomed
itself
.598
anyone
regions
hoped
birds
substitute
hopes
collective
event
witnesses
established
agency
caused
Following
agenda
Results
80th
damaged
cannot
span
patrols
minority
tight
space
reference
bottom
commitment
published
factions
collision
covered
intervention
frequent
membership
aggregate
network
terrorist
holding
public
terrorism
nominee
track
monetary
traded
unchanged
trader
trades
trade
performance
round
currently
ambassador
insisted
aiming
normally
unrest
accuracy
building
setting
nationalist
score
stabbed
ran
Maybe
authorities
southern
32nd
posted
blamed
dollar
58th
federation
SALE
awarded
pulled
indices
40,000
calling
couple
moved
Pay
Jan-April
Fastest
red
act
helped
finish
add
escaped
mutual
exchange
soldiers
prevent
POS=PDT
northeast
BIO=I-LST
message
recorded
truth
moves
age
smaller
motorist
ago
years
gestures
decline
Minister
newsroom
conceded
exit
system
spot
aid
other
retain
air
skilled
retail
crew
defeat
speak
dissidents
outcome
tender
boat
future
movement
signing
royal
-DOCSTART-
kidnappers
rating
body
all
always
already
tying
conducted
barrels
prevWordPOS=RBS
prayers
singled
contracts
favour
weakness
0-0
0-1
0-2
scoreless
row
batsman
abroad
any
suggested
singles
0.1
POS=-X-
0.5
ninth
until
collapse
thought
spying
BIO=B-VP
Midfielders
resort
margin
broke
grade
increased
northwest
11.00
are
came
where
Many
arm
vice
holder
delegates
call
Several
kick
partners
ask
canteen
relations
gunman
through
becoming
officer
offices
run
justified
bomb
Pro
mother
view
protests
results
travelling
palace
Expected
200,000
camp
name
BIO=B-PP
crop
Judge
truce
Parent
absence
book
truck
edition
caps
negative
major-league
nextWordBIO=I-LST
bone
bond
target
gunmen
leader
Commander
pledged
amnesty
cast
officials
princess
cash
greater
case
generation
matches
Doctors
cars
failing
care
participation
assault
damage
boss
exercise
labour
protect
BADMINTON
more
born
kill
percentage
described
speculation
package
king
kind
both
most
malaria
causing
sad
profit
move
amount
saw
also
say
enough
increase
59th
bad
AA-
ban
bar
bat
draft
midfielder
personal
delay
submitted
clashes
deal
strong
abuse
affect
facing
dead
ministers
sea
see
wheat
compared
set
fastest
joined
sex
column
procedure
battle
river
bed
33rd
bowling
12-year-old
shutout
Latest
faded
francs
SQUAD
she
TEST
shr
debt
little
killers
explained
getting
over
ballot
brilliant
six
living
bound
football
avoid
bid
fresh
big
advanced
600,000
nations
bit
two-day
slaughter
improved
thanks
striking
modem
model
animals
reduce
large
20th
satisfied
operate
begin
weekend
neighbour
finishing
halftime
inquiry
convicted
table
bln
change
corporate
several
northern
posts
rupiah
son
1-0
1-1
1-2
Qualifier
1-6
PRICE
AMT
thrown
1.2
1.5
1.7
tense
behind
dozens
ROUND
box
mental
boy
1/2
bpd
prices
highly
unfortunate
chance
illegally
10.
101
102
105
106
107
108
109
stance
county
stood
paint
fighting
11.
Saturday
110
111
112
scandal
115
116
117
friend
drawn
trends
deny
closely
stg
14,775,000
12.
morning
120
ARA
mission
125
doctors
128
129
autumn
conditions
cooperate
overcome
13.
extended
serving
current
secretary
majors
managed
138
copper
civilian
preferred
participants
storm
manager
makes
maker
threatened
amid
RUN
14.
store
140
142
143
145
slipped
contacts
story
but
bus
Defenders
medallist
buy
15.
express
AUG
written
films
GAMES
dealers
16.
wild-card
160
stole
higher
doing
idea
170
prisoners
171
176
178
backing
missing
turnover
Thousands
successful
normal
figure
18.
weaker
180
181
drought
migration
passing
streets
tested
Opposition
195
199
inches
seconds
212-859-1650
retiring
children
road
review
25,000
weather
ethnic
goal
Revenue
neighbouring
racing
freight
range
topsoil
flat
elements
argument
begun
dozen
growing
confessed
tag
RALLYING
filed
goes
pro-baseball
tax
towards
ranks
chances
safe
presidential
balls
flee
fled
aware
can
award
car
marriage
flew
wells
said
village
carried
rainfall
motion
really
response
rival
Reserve
/
3
L
N
P
V
Add
BIO=I-SBAR
self-rule
Rugby
Group
Dealers
District
Export
THE
'S
Trade
Army
Information
bank
16
ministry
nextWordPOS=LS
Socialist
Airways
Service
AS
BP
Gallen
Market
FC
In
OJ
Best
TV
Workers
central
Affairs
XI
Research
OFFICIAL
TIMES
am
at
do
Rating
in
Wheat
Company
magazine
Investors
wall
Federal
Development
Relations
interior
radio
Gas
Marble
Finance
Club
Cricket
Defence
ISS
Business
Airport
party
Capital
Markets
Police
Education
Foreign
Against
Services
Maccabi
alliance
Data
Weather
Government
Security
Investment
Radio
MOODY
Medical
bureau
POS=SYM
Intelligence
Armed
Daily
Agriculture
Industry
Supreme
vehicles
Health
affairs
Total
Press
Sale
2000
Human
Team
Hurricane
democracy
Legal
Cabinet
POS=NN|SYM
Media
Commercial
Interior
office
Wednesday
AND
motor
Soccer
Deutsche
Ministry
'
1
Air
Four
All
Stock
prevWordPOS=PRP
Two
for
is
Division
Social
War
division
First
Civil
Financial
prevWordPOS=''
Net
Council
International
One
RUGBY
League
General
News
II
the
prevWordPOS=POS
nextWordPOS=DT
nextWordPOS=CC
nextWordPOS=FW
nextWordPOS=VBG
nextWordPOS=VBN
nextWordPOS=VBP
nextWordPOS=VBZ
nextWordPOS=TO
nextWordPOS=WP
nextWordPOS=VB
POS=JJR
nextWordPOS=RB
nextWordPOS=MD
de
of
nextWordPOS=WRB
POS=VBZ
POS=RB
POS=VB
POS=VBG
POS=VBD
nextWordBIO=I-ADJP
nextWordPOS=RBR
West
nextWordBIO=I-ADVP
POS=FW
POS=DT
nextWordBIO=O
prevWordPOS=JJR
prevWordBIO=I-ADJP
prevWordPOS="
prevWordPOS=:
prevWordPOS=,
prevWordPOS=(
prevWordPOS=)
POS=NNPS
prevCASE=NA
prevWordPOS=PRP$
prevWordPOS=WRB
nextWordPOS=PRP
prevWordPOS=WDT
nextWordPOS=:
nextWordPOS=.
nextWordPOS=)
nextWordPOS=(
nextWordPOS=,
nextWordPOS="
nextWordPOS=POS
prevWordPOS=VBZ
prevWordTag=NA
prevWordPOS=VBG
BIO=I-ADJP
prevWordPOS=VBD
prevWordPOS=VBN
prevWordPOS=VBP
nextWordBIO=I-SBAR
prevWordBIO=B-NP
prevWordPOS=FW
prevWordPOS=CC
prevWordPOS=VB
prevWordPOS=SYM
prevWordPOS=RP
prevWordPOS=RB
prevWordPOS=TO
prevWordBIO=NA
prevWordPOS=NN
prevWordPOS=NA
BIO=B-NP
nextWordPOS=VBD
prevWordPOS=NNS
prevWordBIO=O
prevWordTag=I-LOC
POS=IN
prevWordBIO=I-PP
BIO=I-PP
BIO=O
nextWordBIO=I-VP
nextWordPOS=CD
nextWordPOS=JJ
nextCASE=0
prevWordPOS=NNP
CASE=2
CASE=1
nextWordPOS=NNP
nextCASE=1
prevWordBIO=I-NP
BIO=I-NP
prevCASE=1
nextWordBIO=I-NP
POS=NNP
nextWordPOS=WDT
nextWordPOS=NN
nextWordPOS=IN
POS=NN
POS=JJ
POS=CD
CASE=0
nextWordBIO=B-NP
nextWordPOS=NNS
nextWordPOS=NNPS
prevWordBIO=I-VP
prevCASE=0
BIO=I-VP
prevWordTag=O
nextWordBIO=I-PP
prevWordTag=I-MISC
prevWordPOS=JJ
prevWordPOS=IN
prevWordPOS=DT
prevWordPOS=CD
POS=NNS
nextCASE=2
prevCASE=2
nextCASE=NA
nextWordPOS=NA
prevWordTag=I-ORG
nextWordBIO=NA
prevWordPOS=NNPS
,
.
nextWordPOS=''
POS=.
POS=,
's
The
No
Central
People
Community
SOUTH
POS=CC
prevWordPOS=JJS
New
National
Old
and
POS=POS
East
World
nextWordPOS=EX
Justice
nextWordPOS=PDT
Gold
(
)
POS=(
POS=)
nextWordBIO=I-CONJP
Van
POS=TO
POS=UH
POS=VBN
White
nextWordPOS=SYM
prevWordBIO=I-ADVP
BIO=I-INTJ
nextWordPOS=PRP$
prevWordBIO=I-INTJ
BIO=I-ADVP
prevWordPOS=UH
POS=JJS
Centre
University
ST
Port
State
Public
POS=VBP
School
Union
Court
Queen
Street
Home
NEW
nextWordBIO=I-INTJ
Bank
POS=PRP
High
2
:
A
telling
F
1000
21st
Major
bypass
Hamlet
LEAGUE
POS=$
POS=:
prevWordTag=B-MISC
Industrial
CPI
310
11
nextWordPOS=RP
76
95
96
DAY
Ten
4.0
My
Seven
Yellow
no
on
Championship
12th
Third
championship
Women
winners
POS=''
Open
law
n't
convention
1990
1996
1992
SERIES
Second
DIVISION
prevWordPOS=WP$
WORLD
against
Five
Winners
Men
nextWordBIO=I-PRT
CHAMPIONSHIP
nextWordPOS=JJS
INTERNATIONAL
program
serie
Test
1,000
Series
Year
Index
President
NATIONAL
Baseball
100
150
Trading
162
RALLY
Price
POS=RP
prevWordBIO=I-PRT
Golf
BIO=I-PRT
POS=WDT
Black
prevWordTag=I-PER
OF
Tennis
GOLF
Peace
GRAND
Grand
SUPER
van
An
Mr
nextWordPOS=WP$
POS=WRB
POS=MD
Jan
Date
BONDS
Key
Sunday
Spot
May
Max
Cash
King
SPOT
prevWordPOS=RBR
Prince
nextWordBIO=B-VP
Mother
nextWordPOS=JJR
prevWordPOS=MD
prevWordPOS=WP
Spring
coast
Sea
Sen
nextWordPOS=UH
31
Prairie
north
hospital
free
Former
Church
POS=RBS
POS=PRP$
prevWordTag=B-LOC
nextWordPOS=$
Our
Long
2,000
Most
Chester
SEC
Neuchatel
T&N
Minerals
O
Amtrak
Universitatea
Res
Collstrop
Crewe
BNP
BOJ
Bradford
Wigan
Gazprom
Collingwood
Salomon
Darlington
Norwich
Kosice
Rennes
Stoke
Administration
Porto
Ferencvaros
Millwall
Bournemouth
Allensbach
Cleveland
Twente
Bielefeld
CDU
Swebus
Rouge
Cardinals
Gazeta
Arch
Giants
Arequipa
Philippine
CME
Glamorgan
Yorkshire
Sox
Hearts
Sparta
Samsung
Mariners
Brighton
CSU
Bury
Penrith
Reading
TVM
Gillingham
TWA
CVG
Liverpool
F.C.
Enschede
Tigers
Pusan
Braves
Montpellier
Americast
Duisburg
Securities
Oldham
Bureau
Walsall
AB
AC
AG
SOLIDERE
Bromwich
AZ
Co
Carlisle
EC
Auxerre
EL
EU
FK
Chor
JC
Padres
LG
Journal
Belchatow
Gloucestershire
ND
OB
OM
Nyva
Rabobank
Mentmore
Mets
Metz
EgyptAir
SK
SV
UN
Barnet
Nottinghamshire
DKBA
Nice
Khmer
Sittard
Gruppen
Puchon
Strasbourg
RTRS
ORIOLES
Slough
Arrows
Kerkrade
Watford
EPR
ETA
Chonnam
Globo
PULPEX
Rockies
Reds
WSRL
Hutnik
Tankan
Kispest
Brewers
Revolutionary
Tottenham
Haitai
VfB
VfL
Assembly
Tranmere
Emnid
Sakigake
Poznan
Leyton
Manly
Middlesex
Somerset
Worcestershire
Expos
Treasury
Burnley
Organisation
Kekkila
Graafschap
Daewoo
Interpol
LTTE
Cincinnati
Fitzroy
Grasshoppers
Tilburg
Lenzing
Dinamo
Helens
Rovers
Corporation
Lech
GKS
Times
Duesseldorf
Dacom
Arsenal
Rapid
GPG
Banespa
Lens
Advanced
Peterborough
Telekom
Bolton
Corp.
Shrewsbury
Tyrrell
WorldCom
Hereford
Transportation
Reuters
Fiorentina
Systems
Schalke
Widzew
Southend
Inc.
Warrington
Promodes
Commodities
Zenith
Brann
IMED
Niugini
Orient
Newsroom
Movement
Amica
Torpedo
Rangers
U.N.
Fulham
Dynamo
Charity
UNION
Newsdesk
Marlins
Ligier
Hansa
INA
ING
Dortmund
IOC
Itar-Tass
Royals
Sauber
Lille
Castleford
Liberation
Aaxis
Essendon
Brentford
Northamptonshire
Genoa
Molenbeek
Juventude
Hamas
Bamerindus
Arminia
Suwon
Spartak
Repsol
Heerenveen
Mapei
Jays
Democracy
Benfica
Richmond
1860
Inc
Institute
Lyon
Werder
Orioles
Leicestershire
Kent
Benetton
Microsoft
Hanwha
Footscray
Anyang
Companion
Yamaha
KDP
Barnsley
Orii
Athletics
College
TEXAS
Gencor
Twins
Fortuna
Chonbuk
Holdings
Eelam
Oriente
Life
Volkswagen
Sunderland
Airlines
Moenchengladbach
Carlton
Halifax
USDA
Unita
Nantes
Corp
Krakow
Milwaukee
Notts
Chonan
Housecall
Blue
Dodgers
SunGard
Brush
CINCINNATI
Berlex
Adelaide
Middlesbrough
Bulldogs
Waalwijk
Postal
Swindon
Ajax
Grimsby
Willem
Escravos
Warburg
Sporting
PUNR
Penn
Mladost
Katowice
LME
Newcrest
Praha
Mostostal
Phillies
Buducnost
Patriotic
Celtic
Authority
Newcastle
Torquay
Startup
Wolverhampton
Sussex
Zastava
Karlsruhe
Interfax
Bochum
OSCE
Lockhart
Tass
MDS
MFS
Front
Queens
Huddersfield
Alkmaar
Blacks
Basketball
Shell
Utrecht
Viktoria
Hapoel
MQM
Rostock
MSV
Leverkusen
Cofinec
Ltd
Softbank
Ekeren
Juventus
Exeter
Xinhua
Cooperation
IRNA
Groningen
NAC
Partizan
Mining
NBH
JOURNAL
NCB
Parma
Aberdeen
Caen
Pohang
Wronki
Suburbs
Atletico
Party
Odra
Hartlepool
Lancashire
Luton
Humenne
Senate
Credit
Geelong
Vitesse
OAKLAND
Faulding
Moody
Boys
Inter
SPLA
Fremantle
Municipal
Astros
OFK
Slovan
Pauli
Nijmegen
Ssangbangwool
Amoco
Desk
ICAC
Guingamp
Tychy
Sachs
NATO
Raith
Motorola
Ipswich
Cargill
Roda
Mansfield
Hawthorn
Barrick
Cannes
Cargo
Petrosani
Marseille
JavaSoft
Oak
Paribas
Wodzislaw
CNIEC
Slask
PKK
Stagecoach
PLO
CSKA
Rochdale
Department
Parramatta
Elect
Blackpool
Merrill
PSG
PSV
PTT
PUK
Chemlon
Sokol
Stockport
Legia
Biogen
Scarborough
Kawasaki
Cubs
Brugge
Metro
Bahia
Plymouth
Ducati
Lodz
Stirling
Wycombe
Plc
Bayer
Hyundai
IVAC
Star
Everton
Crystal
Palmans
Election
Ballybunion
Warwickshire
Swansea
Borussia
Kilda
Aston
RBA
Rights
Jiul
Communications
Germain
ABC
ACC
Liberal
Wrexham
Statistics
Oakland
Agency
Bayern
Board
Yankees
RKC
Missionaries
Insurance
Feyenoord
AOL
Workington
ARC
Bastia
Graz
Yedioth
Representatives
Honda
Arnhem
Lokomotiv
Scunthorpe
Hull
Coventry
Rotherham
SBC
Illawarra
Indonesian
Ford
Thai
Conference
Republican
Democratic
Rican
Rally
Ferrari
Democrat
Convention
Exchange
Committee
Indians
TM
VW
Battle
Swiss
Doncaster
Eastern
Internet
American
Subaru
Labor
Mitsubishi
Mexican
Petroleum
Asian
Southern
Miss
Association
Irish
Democrats
Universe
Polish
Toyota
Names
Nepali
Reform
Office
Brent
Commission
Kurdish
NEC
Palestinian
Jordanian
Dutch
Leeds
German
UEFA
European
SIMEX
Aviation
Monde
NATIONS
McLaren
Japanese
Labour
Congress
Australian
Catholic
COMEX
Treaty
Nations
Porsche
RBI
S&P
Romanian
ATP
Bosnian
Games
Law
Christian
Karen
Costa
North
Hong
Western
Red
CHICAGO
San
Arab
Kong
Australia
AL
Basque
La
France
KONG
Middle
London
Sierra
Wimbledon
Football
Russian
U.S.
South
British
Czech
Bombay
Trax
Indian
Los
HONG
States
African
Tamil
California
Oklahoma
Independent
French
India
Saudi
County
Atlanta
Islamic
Iraqi
Super
Castilla
Aki
Keane
Brooks
Sun
Baker
Lehman
Lloyd
Villa
Petra
Le
Ruch
Dan
Post
Goldman
Sheffield
Vale
Hanson
Vicente
Sion
Gloria
Chelsea
Fox
Leon
Philip
Dole
Durham
Chong
JOHNSON
Stanley
Power
Lynch
Young
Edwards
Miguel
Liu
Mills
Pirates
Charlton
Blackburn
Wellman
Morris
Bonds
Nancy
Stadler
Polonia
Williams
Gingrich
Taylor
Lotte
Ross
Santos
Dundee
George
Wood
Robert
Love
McCarthy
Thomson
Diego
Wall
El
Hamilton
Royal
W.
Angeles
Washington
Lincoln
Johnson
Park
Preston
Jordan
Boston
Toronto
Milan
Paris
Paulo
Francisco
Arthur
Louis
Houston
&
CLEVELAND
Barcelona
Balkan
Rio
Angels
PHILADELPHIA
BARCELONA
Bristol
Jerusalem
Mountain
Miami
Greece
Athens
Amsterdam
Abbey
Sao
Rwanda
JERUSALEM
Columbia
Florida
Cologne
Spain
Pacific
St.
China
Nepal
Amazon
Chesterfield
Seattle
Finland
Zabrze
DE
Cyprus
Tokyo
Brazil
DETROIT
Frankfurt
NZ
St
UK
US
Alaska
Trust
MONTREAL
Bordeaux
Saskatchewan
TORONTO
River
Dublin
City
Chorzow
Warsaw
Melbourne
Zealand
CALIFORNIA
England
Valletta
Surrey
Colorado
Bucharest
VALLETTA
ANGOLA
CITY
Northampton
Colombia
Eindhoven
Zimbabwe
House
COLORADO
FRANCISCO
Pakistan
Southampton
Sudan
Taiwan
Canberra
Coast
Northern
United
Baltimore
Philadelphia
Akron
Federation
Indonesia
Antwerp
Istanbul
ATLANTA
Japan
Commonwealth
FLORIDA
Mexico
Colchester
Detroit
Pennsylvania
Doetinchem
Kurdistan
Monaco
America
Buenos
Atlantic
Arkansas
UNITED
Prague
Essex
Cardiff
Europe
Hamburg
MINNESOTA
Kansas
Singapore
Massachusetts
Stuttgart
Auckland
Taibe
KANSAS
Minnesota
MILAN
Beirut
Sydney
Bratislava
Volendam
York
ANGELES
Manchester
Linz
Palace
SEATTLE
Sofia
Nottingham
Ulsan
Canada
Vienna
MILWAUKEE
Georgia
Shanghai
Iran
LOS
Oxford
YORK
Aires
Vermont
Bremen
Moscow
Nigeria
Leicester
Ireland
Algeria
Charleroi
Texas
Breda
Karachi
Jakarta
Rotterdam
BOSTON
Wroclaw
Kiev
Zurich
Venezuela
LOUIS
Chicago
Belgrade
Birmingham
Brisbane
Seoul
Road
Austria
Bangladesh
Montreal
BALTIMORE
Madrid
Forest
Cambridge
Lebanon
Luxembourg
Munich
PITTSBURGH
Ottawa
Bridge
Liege
Havre
Portsmouth
MANCHESTER
DIEGO
Bistrita
Queensland
Larnaca
Freiburg
Bulgaria
Taipei
Kabul
Germany
HOUSTON
Pittsburgh
Dhaka
Hampshire
Liberia
Hungary
SAN
Israel
Formula
Greens
Avonex
Arabs
Airbus
BSE
Malaysian
Moslems
Lankans
Italian
Serb
Serbs
Belgian
Canadian
Brazilian
CUP
Argentine
Classic
Croatian
Korean
Prize
Americans
DEM
A$
Moslem
C$
Celsius
Dm
Iraqis
Olympics
US$
Day
Turkish
Swedish
al
et
Dow
KOREAN
Republicans
Kurds
Austrian
Impreza
Cuban
Albanian
Lankan
Taleban
Medicare
Chechen
Olympic
GMT
Syrian
GTR
Toshiba
Maoist
ADRs
Portuguese
Prix
Helibor
Championships
HK$
Spanish
AMERICAN
U.S.-led
BELGIAN
TOSHIBA
CLASSIC
post-Soviet
Israel-PLO
PRIX
Greek
Angolan
Slam
Algerian
Norwegian
Kurd
Escort
Celica
Tour
Java
OPEN
Nigerian
Nobel
Serbian
Frenchman
EASTERN
Bulgarian
Bosnians
TOUR
CANADIAN
Euro
GERMAN
Spaniard
Burmese
DUTCH
Tibetan
Africans
Palestinians
CENTRAL
Betaseron
NETHERLANDS
Kadian
LAKES
Nikkei
Israeli
ENGLISH
Yugoslav
Moroccan
Nazi
Islamists
Egyptian
Slovak
FRENCH
EUROPEAN
English
Chechens
Danish
Regulation
Tamils
Lakes
HAMLET
Hungarian
Afghan
British-based
Nasdaq
SCOTTISH
Russians
MAJOR
Islamist
Sudanese
Scottish
Swede
Bundesliga
Eco-Challenge
Israeli-PLO
Mission
CAC-40
Briton
Nicaraguan
Ivorian
Lancer
ITALIAN
Chinese
Colombian
Edouard
Ai
Windows
Millns
Rene
Hill
Bill
Brady
Lewis
Jones
Singer
S.
Hall
Poland
Davis
Roman
Morinville
Sri
Iranian
USA
Gulf
BRUSSELS
Newbury
WESTERN
Pakistani
Republic
Netherlands
Africa
Soviet
Brussels
Switzerland
Hutu
Cup
Jewish
Rwandan
COUNTY
Freeman
Gerhard
Anwar
Ekeus
Gary
Johansson
Brandes
Wiesner
Richard
Giovanni
Bourlet
Ali
Ezinwa
Amr
Roe
Bossi
Ann
Iliescu
Boutros
Fischler
Sven
Nicolas
Whittall
Rui
Nilis
Stefan
Dennis
Maskhadov
Ruutel
Habsudova
Danny
Steffi
Luehrs
Bobby
Knup
Francesco
Javier
Villeneuve
Sam
Voinea
Oscar
Gustafsson
Pedro
der
Simon
Angel
Federico
Lennart
Nestor
Kenneth
Darren
Johnny
Brooke
Conte
Stewart
Rosset
Mutola
Ferrigato
Fairbrother
Peter
Bob
Magnus
Kohl
Lamm
Sergi
Anderson
Wang
Oncins
Gujral
Dalglish
Woodforde
Dimitris
Kennedy
Bruguera
Evert
Rosati
Smith
Christie
Younis
Cal
Frederic
Rifkind
Gephardt
Chen
A.
Moura
Cea
B.
Malik
Andreas
C.
Svetlana
Soren
D.
Rabbani
Tim
Tauziat
Eefje
De
G.
Montgomerie
Larry
Asif
I.
Ijaz
J.
Tom
Natalia
K.
Markov
M.
Graham
Stefano
Corser
N.
Meri
Abdul
P.
Goosen
Fleurian
R.
Sharpe
Alami
Flemming
Grobbelaar
Sainz
Scott
Sharif
V.
Makinen
Fred
Alain
Oliver
Michelle
Boardman
Kaluwitharana
Raphael
Richey
Jonathan
Schumacher
Fredericks
Nick
Netanyahu
Chiate
Anthony
Masood
Daschle
Eales
Ruth
Magdalena
Huber
Mayfair
Kafelnikov
Eddie
Miller
Azharuddin
Frankie
Karina
Koerts
Woosnam
James
Inzamam-ul-Haq
Shah
Waqar
Wilson
Bonilla
Salisbury
Gajdos
Medvedev
Ronaldo
Demel
Dubnicoff
Faure
Julian
Natalya
Stephanie
Saddam
Roger
Chamorro
Abdul-Karim
Lawrie
Blakey
Pires
MaliVai
Kuchma
Kevin
Akram
Maleeva
Costas
Els
Luis
Lomas
John
Lupu
Sorensen
Charles
Lauck
Fogarty
Lanusse
Hidemichi
Brown
Broadhurst
Stephen
Moxon
Olsza
Guzman
Takemura
Arnold
Heinz-Harald
Patrick
Witschge
Tomas
Akbel
Korda
Foe
Veldman
Mubarak
Weld
Grant
Barrichello
Pantic
Davies
Antonio
Wasim
Levy
Ponting
Eduardo
Reneberg
Stenning
Sandrine
Eric
Hoddle
Tommy
Erik
Tommi
Michel
Kontogiannis
Vicario
Hussain
Lindsay
Hassan
Joyce
Johan
Thiel
Corey
Atherton
Vladimir
Ryutaro
Yevgeny
Jacques
Mike
Mika
Paul
Nicole
Mind
Henman
God
Simpson
Jackson
Jarmo
Wouden
O'Brien
Conchita
Guy
Clayton
Palmer
Julie
Weaver
Irina
Ranatunga
Neumann
Joseph
Edgar
Haj
Hal
Patricia
Alesi
Volkova
Tortelli
Reiffel
Ferreira
Thorpe
Sidhu
Greer
Fowler
Kubo
Shane
Warner
Arantxa
Jack
Flower
Raichev
Olivier
Carter
Waugh
Ronald
Todd
Knight
Alexander
Klinsmann
Leonard
Kotlarska
Jana
Jane
Jans
Tony
Moyer
Edberg
Ballanger
Clinton
David
Cedric
Salim
Ulihrach
Coetzer
Reagan
Ian
Rios
Terry
Panis
Jayasuriya
Juergen
Mushtaq
Ripken
Zhirinovsky
Michael
Waldorf
Bhutto
Woodbridge
Laurence
al-Kabariti
Teresa
Riley
O'Neal
Gavin
Teutenberg
Mikael
Tatyana
Frentzen
Botham
Hingis
Drew
Cocu
Museeuw
Miltiadis
Ata-ur-Rehman
Norman
Liam
Barry
Damm
Colonna
Jim
Bohdan
Jonzon
Gooch
Talabani
Hicham
Armstrong
Slight
Antoine
Jon
Derek
Rodriguez
Adrian
Aslan
Cork
Fernandez
Lebed
Yeltsin
Dave
Laurent
Martina
Jason
Rubens
Marchal
Lopez
Novotna
Chang
Mohamed
Crohn
Bruno
Adams
Croft
Owens
Gianluca
Chris
Walker
Coulthard
Masterkova
Giles
Majoli
Sanchez
Newcombe
Hussein
Russell
Ken
Bernard
Chernomyrdin
Marco
Mitchell
Davenport
Carlsen
Mario
Muster
Kim
Tendulkar
Willie
Linhart
Yasser
Pete
Steve
Petr
Martinez
Juha
Yassin
Justin
Ahmed
Banisadr
Hogg
Machado
Benjamin
Batistuta
Tang
Troy
Juppe
Jimmy
Hope
O'Neill
Specter
Akam
Lee
Sosa
Fine
Prescott
Andersson
Lambrecks
Sarah
Martin
Brunswijk
Mokhoff
Jean
Glyn
Smicer
Francis
Naoko
Retief
Hatoyama
Pollock
Kelly
Jeff
Hakkinen
Hekmatyar
Ludmila
Tillstrom
Bailey
Dekker
Eriksson
Wayne
Jens
Marcus
Kytolehto
Talbott
Fulton
Simitis
Kwasniewski
Rangarajan
Capiot
Rohrabacher
Ivanisevic
Enqvist
Judith
Gilbert
Stevanin
Anders
Jean-Paul
Alan
Brundle
Boer
Alex
Mia
Alec
Moin
Gronholm
Thomas
Erbakan
Seles
Billy
Donovan
Carl
Penrose
McEwen
Mohammed
Streak
Vaughan
Berasategui
Arafat
Mohammad
Helmer
Daniel
Skandalidis
Phan
Ischinger
Cozma
Sergei
Kocinski
Ferguson
Campbell
Dean
Kornblum
Necmettin
Karol
Diana
Nixon
Howard
Phil
Clarence
Stricker
Ducruet
Moore
Bernd
Craig
Philippoussis
Ames
Kankkunen
Prasad
Tsang
Allen
Weinstein
Andrei
Andrea
Garrity
Christophe
Headley
Marcelo
Dharmasena
Andrew
Allan
Kenny
Haas
Nathalie
Hasina
Takeda
Haga
Michele
Samper
Brian
Toure
Goydos
Stich
Rolf
Weizman
Tutu
Henry
Mujtaba
Sary
Gore
Rose
Elena
Rashid
Albert
Andy
Aamir
Frowick
Goran
Mullally
Chapman
Ibrahim
Kevorkian
Anke
Aleksandra
Jesse
Garang
Thompson
Palkhivala
Amanda
Anne
Berger
Melissa
Rubin
Karim
Ieng
Testud
Odnosum
Ciller
Kucera
Rocca
Zvereva
Fernando
Pat
Brad
Perry
Pinas
Silva
Yihye
Tarango
Vacek
Monica
Rafter
Dostum
Carling
Costantino
Pyman
Gough
Strang
Anton
Saeed
Pol
Aoki
Basuki
Pot
Krajicek
Banharn
Loko
Shimon
Stoltenberg
Duffy
Crawley
Marc
Mark
Mary
Sandra
Tapie
Mats
Stallone
Popov
Healy
Linford
Kimiko
Muralitharan
Cyprien
Raymond
Irani
Moreau
Ozers
Moada
Jiri
Hendrix
Yoshikawa
Terence
Stephane
Gastel
Buffett
Gilbertson
Vyacheslav
Blind
Robinson
Jorge
Neil
Gabriel
Zinzan
Colin
Dutroux
Courtois
Hashimoto
Frank
Alberto
Franz
Heeswijk
Herbert
Andre
Reeve
Bertram
Graf
Boris
Kabariti
McCurry
Damon
Greg
Bedie
Gatera
Peres
Pioline
Perot
Milosevic
Collinelli
Agassi
Sampras
Roberto
Mickelson
Sohail
Lance
Gibbs
Dick
McGrath
Abu
Ben
Florence
Allenby
Mo
Wells
Matthew
Nelson
Virginia
Jose
Hospital
Barbara
Turner
Kingdom
Christopher
Island
Kan
William
Maria
Juan
Little
Khan
N.J.
Colombo
Field
Roosevelt
Carlos
Wolf
SEA
Kremlin
TOKYO
Afghanistan
Morocco
Estonia
Gaza
SRI
BEIJING
DELHI
AMSTERDAM
Sweden
Wisconsin
MADRID
Kuwait
Albania
Serbia
WARSAW
AUSTRALIA
U.S
Orvieto
Norway
Argentina
Congo
BUENOS
Azerbaijan
Mahala
Chile
Belgium
UAE
Kashmir
KUALA
Vaduz
DUBLIN
Slovakia
WELLINGTON
Stansted
Worcester
LONDON
Guinea
Delhi
Malta
COMMACK
Algiers
Abuja
FRANKFURT
COLOMBO
Eritrea
Bosnia
MELBOURNE
Ocean
Nairobi
ENGLAND
BANGKOK
CAIRO
ANKARA
ATHENS
Mauritius
Dayton
Tehran
Reef
AKRON
CARLSBAD
Chechnya
Gatwick
SARAJEVO
Sakai
ZIMBABWE
Trinidad
Wellington
PAKISTAN
Tirana
Riyadh
GENEVA
LUMPUR
Namibia
Ukraine
Jamaica
VIENNA
Ethiopia
JYVASKYLA
Baghdad
Korea
Cairo
Trent
Trafford
JOSE
Sarajevo
Bogra
Neths
Turkey
Islamabad
BAGHDAD
Midwest
Geneva
STANSTED
Headingley
Kosovo
Cambodia
Syria
Mideast
SOFIA
Rica
Togo
TALLINN
HELSINKI
PRETORIA
Gabon
Yugoslavia
Town
LAGOS
Romania
TIRANA
Corsica
MEXICO
Seychelles
Ramallah
AIRES
Benin
AMMAN
DUBAI
Slovenia
Moldova
Croatia
Calcutta
Surabaya
Mozambique
Berlin
Lithuania
PARIS
BOGOTA
Salang
Burundi
Iraq
Grozny
Peru
Senegal
Ecuador
Tibet
Bangkok
Damascus
Bahamas
Amman
Malawi
ZEALAND
SEOUL
Thailand
WASHINGTON
Lahore
Denmark
Vatican
Johannesburg
SYDNEY
Italy
Caribbean
BRASILIA
Leduc
NORTHAMPTON
Bonn
Angola
BERLIN
BELGRADE
MOSCOW
BOMBAY
Belarus
Libya
Oval
H.K.
LANKA
BUCHAREST
Nicaragua
Wales
Doboj
BONN
JAKARTA
Zvornik
GLASGOW
Rome
INDIA
Khartoum
DHAKA
Uganda
Zaire
Jersey
Karak
Russia
MANILA
Cuba
ROME
Heathrow
Lanka
JOHANNESBURG
Prairies
Arabia
KATHMANDU
Budapest
LISBON
MIAMI
BUDAPEST
Kenya
Malaysia
Scotland
Ohio
Portugal
Latvia
Beijing
Kandahar
Britain
Yemen
STUTTGART
SHANGHAI
SINGAPORE
Calif.
Egypt
Guerrero
MT
SPD
FDP
PDS
prevWordTag=B-ORG
0.2582745335763993
0.325770745412091
0.2743398788470496
0.3346759592417629
0.3441184318944575
0.43184556657022166
0.3290334628098218
0.4192578237856216
0.264212046522917
0.39730620614910916
0.23960056611015387
0.3116305540836556
0.3932074465813778
0.2374099741655663
0.23144907249462474
0.23997983093438988
0.2400841586520805
0.32137446376241585
0.2384627950648923
0.23496484932400663
0.2387570919247665
0.23619954085939654
0.23663265347258527
0.25129386325427033
0.4620279940377503
0.5618402740210758
3.097364921976569
0.30713464332839735
2.0901506909911305
2.717413747887444
0.2544926527514441
3.188447418747345
2.6997253284933804
2.3373609088688045
0.4573719305376348
0.682187783436757
0.35597731587278897
0.33465343137422504
0.28910794710784393
0.2867402221482935
0.2980826670395116
0.4073356391107481
2.6297543399110177
2.803967160160803
0.2858341884016392
0.3121812550469357
0.2869654183150179
0.2791842320329785
0.29965674740957
0.42007235303074053
0.23113036886946384
0.24452162059610413
0.3440525306588474
0.3850281346737049
0.4429531682907354
0.2649543256724228
0.7462027386383617
0.3295502163141344
0.30200226632703436
0.255967873142139
0.27016516947673636
0.914956870238015
0.26682899172005503
0.48395669997280244
0.42545095713892905
0.2713255335303131
0.3370423072342924
0.3689550171294336
0.5868094865545643
0.3430051623472714
0.4038523439874872
4.238117314215163
0.38337370611729904
0.43366372958128313
0.34778574982138827
0.4661796802236102
0.2911734390960618
0.2663689161480229
0.30972370876358307
0.2811850012482719
0.3065051931082134
0.47097241037920173
0.251087471000129
0.41928386126907236
0.3022860441144442
0.23181127750468133
0.340114654034689
0.27235559740512816
0.2729208669914361
0.405326736739434
0.31065335499442487
0.4662026134079303
0.5384652424889795
0.25061793480264
0.34905633108375494
0.33071550181924486
0.2505212864630971
0.36147937610208025
0.2883866535681461
0.2759616548683503
0.2467762155288769
0.25264757457486553
0.2776437371821064
0.3299067900244089
0.26199696713599735
0.4753785838196351
0.23718822936294257
0.42253392273234175
0.46458675697705676
0.23398088466573724
0.29272688454000484
0.26407187261425913
0.2619922383285744
0.23191990289661768
2.2705934335105877
0.23612731987670882
0.3895780391449018
0.23097571331247296
0.2738835716622867
0.2607065881828984
0.3456374852226798
0.26349395852809954
0.2600109741341208
0.2706733088778027
0.2405007232338199
0.2563314887632074
0.2447064956287571
0.8302979326625662
0.25376224618451615
0.47835297073663463
0.272836910021931
0.3299962630114572
0.45412190514037215
0.26439365421696
0.46556427156142816
0.2696408055732298
0.281670030162422
0.2589266032966115
0.939832438240864
0.2649398080113907
0.23040069628946977
0.2665103414295735
1.749677340789727
0.2602909830046801
0.24445458626781516
0.46855526693442345
0.2562782901358125
0.3603228312629084
0.27117678171814236
0.43610099025172144
1.494909722768938
0.2702798420095004
0.5475002266152785
0.2683279820686201
0.23840920969592908
0.2650964923069479
0.25873403356043434
0.27767173628559033
0.3092325163806787
0.2552414861189952
0.33116374076509686
0.5069991266924896
0.24819657511387505
0.23855120458381626
0.23743753189714614
0.2752650712191873
0.25660309304642104
0.26629844590485857
0.40706869535877976
0.23552546473918043
0.273610039744834
0.2563782223219569
0.5563995012815368
0.3679587024223993
0.5333182229720834
0.26837812610914424
0.2611295665554043
1.4816572932079515
0.274084430020827
0.23797371726674577
0.2645726044488961
0.29635272558946857
0.2778615915391489
0.25220326483463457
0.2565672259803586
0.2702660423073471
0.43796125708854233
0.32765979416388324
4.162267441647539
0.23478206783402641
1.8223277430993337
0.24746239966058114
0.7904442152085825
0.3475093056270504
0.269544008863539
0.269777804731846
0.3971665179331198
0.2581110939292534
0.5618567683530414
0.22946052295120364
0.7142963685333688
0.44903143146382296
0.2815835353260627
0.2749906778164521
0.27047646542337833
1.16680014395967
0.2450504399625255
0.27068714525913384
0.35823805596952085
0.5050719425652728
0.4617127004638971
0.330527436537084
0.5340807964442801
0.4360330831426001
0.2503004352442473
0.3336962832468908
0.2988135263684904
0.26064208041506043
0.27529423481567256
0.26007968033729884
0.4852994079911837
0.3235278189709934
0.443268694026289
0.5406971455047851
0.5491327765572137
0.532586778249386
0.3438856262124782
0.4159677730064939
0.302757208337153
0.41171694724504887
0.2616106809988084
0.2596084221056708
0.2696896792199076
0.25408940581275313
0.23712552434164744
0.28807538092054563
0.2730670959036869
0.35703890922497383
0.5997555366218819
3.8847579588020307
0.306893935144709
0.2412472295146781
0.23224088224306016
0.4107955809500026
0.26090260506766494
0.392005897103499
0.34615551455227367
0.3310493904945767
0.23071522519186125
0.23040069628947016
0.3817501537273477
0.24740300263797457
0.2699618190180563
0.2659130848626293
0.2699316905845171
0.3356900017726141
0.26166384208833454
0.27189755554408485
0.27642669825690924
0.2702191245112275
0.3164884714545263
0.5580145991269709
0.26919730137478326
0.2908741019203315
0.3441184318944575
2.629754339911017
0.31281062805585147
0.2572904528582423
0.2605339641365778
0.2616144323339639
0.3408557898315161
0.27939995130869794
0.2732030973394574
0.26195932888054496
0.2558454307993092
3.0454195202780516
0.26036202887149074
0.2719868421047029
0.278082986158324
0.4521461192016086
0.3934960831635548
0.5973160248051474
0.28564462209720154
0.27841302011406194
0.6119530806528727
0.3212655687224567
0.346912185451045
0.24151595980336305
0.45013243338788383
0.26469406759824665
0.5832201610120705
0.2502080056684243
0.31878337830414916
1.6075176543711487
0.48262058822931214
0.28105354033507973
0.2664714350218043
0.27000769554809684
0.27395110265882044
2.896854587914484
0.31096539984275245
0.35553080857055275
0.4846421594366172
0.2318721448924704
0.26412138997859047
0.32562564590318327
0.26711094072363356
0.2551806808217641
0.4602544436242463
0.5217084215610912
0.22937508681104876
0.5819679927351937
0.49816689389051894
0.3487236442123507
4.305701527001207
0.2643265109428534
0.9856968360698566
0.46341804238909023
0.25921211837410246
0.26149896182953397
0.28315164002510124
0.25847694730569826
0.27936161968571405
0.28905402629436266
1.2623557582318456
0.27972022076008424
0.2756219409962241
0.2633205807547738
0.3114391158268748
0.2603739164983827
0.26475243326877246
0.2543605730117206
0.2673112463043306
0.529841821068627
0.25399621142205964
0.2402125333695239
0.35856457901821304
0.2831071979136516
0.2581815558431302
0.2301067689265799
0.25320845277283704
0.23370924665819753
3.673432524767227
0.2681216466727175
0.30036018373010187
0.8692628515254828
0.2678478598924742
0.4492412565101039
0.2695125982005112
0.23249342651044655
0.34853331692709694
0.27844584168937286
0.2844575245283665
0.3586800746181048
0.3533329615949655
0.5712261895957331
0.27508824946510213
0.32563729524521806
0.2326375406629914
0.4789260133455078
0.2275857960533938
0.22445319205978884
0.25239477477218614
0.23037647289234708
0.2612009209159975
0.3373676295091436
0.33220340051002134
2.9077237216413296
0.2929365591571139
0.27876456695621576
0.5325455207882949
0.26331201975778834
0.22990702374065905
0.26407619152571266
0.27615303007484926
0.33660191444443077
0.42271044513027084
0.5068191860849158
0.6438829406398848
0.27118837679530794
0.5945780738245202
0.7450934470262806
0.23453242289099224
0.23302355387465656
0.2663672102213351
0.5069718559059349
0.36287783858978506
0.33506302691462947
0.3129012951028834
0.2740748444142549
0.2593917085778409
0.32008270392497384
0.42434691391012813
0.2590571408510438
0.29575467225649266
0.2718531944179935
0.26595409119315705
0.2558238729881181
0.23383073754418748
0.2357030917609366
0.22633095398765998
0.2622009722379475
0.2708391478287144
0.26099948088873176
0.28636779552287117
0.30316206611038493
0.33447289098994787
2.766682809909683
0.5788935812030078
0.26266009920906136
0.5706600513661088
0.2652217745408477
0.23425881382019872
0.5780201219784653
0.23189783684111284
0.2818357568441018
0.26500602885574903
0.27703679969476885
0.26818426974436166
0.4987931113452351
0.23243704526270914
0.2579339702382011
0.234452893337707
0.23736715798439312
0.23420187952548707
0.2345083344208495
0.2370655435807925
0.23506008449743843
0.23732564471072232
0.30133162522496226
0.4259849474859264
0.36288905365643526
0.2919318051540962
0.30546096672899853
0.227380835968737
0.6438911598364168
0.23785468346431782
0.25226606872967217
0.2443154615264024
0.23526116758557053
0.23875598387791533
0.23959809540189614
0.2863775280105891
0.2606418977562284
0.2353972308566126
0.2357702567659959
0.23699336173963612
0.27478328829856913
0.4263071869214403
0.4852994079911837
0.8778494011139966
0.2589061907485203
0.2725517088813251
0.2668222822068666
0.23112219268805242
1.112011579180175
0.2341049967805093
0.23236449012442564
0.2295479571092192
0.23626183183925104
0.23308713031302297
0.2744959208013576
0.23729021546982784
0.233160826175441
0.31257882345499144
0.23311925181171383
0.3123058219133766
0.24042001395726173
0.5659940264270767
0.4508843527456536
0.23967248530093085
0.3232614250745209
0.319591243204995
0.2689098339581295
0.23150522145238364
0.23185585665676325
0.26245977651840124
0.24287262407574173
0.2362699057959535
0.26807088379584526
0.24066513922162652
0.23776571669118501
0.2679590746293198
0.27292514858686157
0.2330159729579087
0.22866293392629353
0.2381067129238893
0.25521495559304824
0.3311817877311423
0.2296441545134906
2.4198777676770633
0.23071522519186088
0.5466030023526779
0.2334790631517632
0.23279376326904228
0.2755035628315602
0.23349857827495415
0.23445002552985503
0.237197783900561
0.46178889450703736
0.2379114239266362
0.28249641362358674
0.23646199165043516
0.23466864903791698
0.2385268010147864
4.409166021341565
0.39332656318835674
0.2641989417777174
2.7487554261689953
0.4043832093030467
0.2539787186845651
0.539370746808596
0.25777432540012657
0.2377301619480407
0.5973199872506673
0.3250593144960984
0.5262481623421451
0.2912716443368074
0.23313124865894744
0.2364440471143569
0.24253245735406614
0.23773130620399532
0.23545957379328064
0.24410636970280825
0.23966453843138913
0.23795356778732799
4.5099332694099
0.2387385475710927
4.985119838585182
0.4558725711033703
0.31767960795617095
0.271803977127014
0.26042088623438564
0.37297887561400556
0.2634171812799857
0.5063712126198681
0.42547371792725047
0.23925392807625323
0.23811207331059897
0.2391431350206666
0.23841827340808616
0.4128479559470869
0.23610346470878696
0.2378688838740578
0.23959862600298565
0.3126351581973008
0.3163244868004671
0.26646284082694127
1.0908955127474014
0.3389746802155029
0.6151618673626189
0.23706993330327758
0.7766203536430226
0.2349781200952118
0.26953709338871823
0.35038477513683053
0.23696796167867115
0.2457125678887482
0.2553811977440871
0.23791358831605283
0.2897396124524642
0.23735454158201655
0.25137447831194226
0.2578374845106521
0.23232911180077273
0.2347854219073844
0.2732650650824371
0.27646135933657473
0.268252233658924
0.26797019288776097
0.5459771630969842
0.23618675277776985
0.23892319314849955
1.1897125893619298
0.23201347980823128
0.43856753167993207
0.3856094054562822
0.3785911423857173
0.25719839873178596
0.30412297392800514
0.28246692647814486
0.2588726486725543
0.3578429648150141
0.266813721155105
0.45592049094338216
0.3885622209825488
0.32424866338616093
0.2502868220396468
0.3496923998770525
0.2615652787183403
0.31969003034442794
0.45425569660732784
0.2735655784590257
0.2694287681003766
0.2904873310267998
1.7762539745621297
1.90756984449681
0.2582880973822491
2.6830854538980082
0.33565961921907894
0.23346089873838147
0.26847080980233184
0.26958432199774196
0.2794703758428425
0.27613824035639384
0.4480709251627155
0.23428161842272177
0.2819265900941543
0.39201448222867813
3.84331657761458
0.26154561893171957
0.3356515046285935
0.26558415917351585
0.2633583663371769
0.7053873366035411
0.42990959864787875
0.2999056386056183
0.7821503613711368
3.455017211077303
0.2635466079448196
0.3024862929934249
0.5477380647709545
0.25928492486829907
0.3296773071400425
0.25840377718556906
0.25529897459521106
0.2785545729301255
0.32106737653555173
0.3096604594681168
0.32070249766631864
0.2621997089330641
0.2707134474205835
0.2808248226410375
0.26525999007544
0.27069027077819857
0.24952984912745393
0.38042815388369255
2.7973144146758573
0.2949001708750055
0.3516807648689738
0.5714543915120143
0.26497593363630867
3.609500158265629
0.3342309506479645
0.9174830247339887
1.3538366790046608
2.94502567141636
0.4488218686115829
0.2447224892668814
0.2515585565050339
2.7261969681710854
1.5479539398231685
0.381777785781017
0.2700525791737387
0.26067806595652004
4.59398184533806
0.2792966088556614
0.262545851222566
0.3473908344688428
0.31861981490126806
0.266255073094012
0.2669336279695576
0.2634100279232646
0.4066815956550741
0.2760927869973146
0.3924610692244276
0.4967500845097516
0.267135633700047
0.27972246612749174
0.2585499306058948
0.32947357738709404
0.25043539431628725
0.3341427121675124
1.6093594416244035
0.36036799422035115
0.5275564638909837
0.672847728575083
0.27195661568056656
0.29553854413679564
0.22640224541513715
0.3972989845930599
0.28515850339230786
0.3888699218200213
2.7254236281549744
0.41987454879083813
0.2539447832147633
0.32320632502516955
0.5298840014398514
0.3255688950459074
3.0516369945483484
0.3397814459374883
0.5089036972002539
0.23472394650292994
0.26714767056198324
0.26570753447932294
0.22699429484046332
0.4616134803640386
0.5129334906943784
0.2735582929244545
0.4364627284544328
3.5494801432891014
0.2577444636292208
0.28899331878160023
0.25675976013982665
0.5755904206633828
0.6920021158043003
0.27327579312124606
0.32737788459462924
1.618183587682177
0.6753996959613875
0.3868299791250446
1.6397352198448192
0.2349451349049562
2.392777412718081
0.3598581098074677
3.8229928533662747
0.7042898569418438
0.2755169431007595
0.2952840160134825
1.619979750197459
0.42642289113687476
0.25883179297393605
0.2535683815174989
0.27689448710818415
0.36336551607435985
0.28055758198454384
2.9051728484950963
0.27439934227676094
0.32676151604242576
2.4873185532044353
0.34405542769469427
2.157726257203491
0.26674229628152696
0.2608658158118364
0.2660438241196379
0.24271497770804895
0.264893585445436
0.2834092982160525
0.4405743727381909
0.5788814958336275
4.184414730160034
0.5492001488217152
0.35301465405198357
0.3366342449954469
0.35389242902892903
0.8553510070478688
0.37728449165254535
0.2625778376626532
1.0849079450716044
0.46092997298829214
0.255572982789136
0.26063949480447723
0.38556569740464675
0.8213096895844182
0.2708866274344295
3.145992889972395
0.2725544611128675
1.318086960057257
0.4086181383997536
3.0998735274854767
0.29890415385592606
0.2704518462811378
0.28304495247214834
0.4499830583597361
0.47310076603755935
0.2685978527502226
0.2636588394668678
0.26844997743009313
0.2535091621420172
0.284599119039474
0.3752971483377211
0.26272749210603835
0.23143377265609447
0.27518611121345365
0.3452136899790504
0.27210133398622377
0.37938836853884855
0.29572715076225414
0.47272329153336295
0.2575274996890035
0.42783729523346786
0.9260903703841328
1.1202800830062023
2.0050746519675133
0.271013538049472
0.26176381718674213
0.2909856618607152
0.2729818336788054
0.5917721550353522
0.5011130654129556
0.29955255917484674
0.34079123376928583
0.30134634382845776
0.34671821394391683
1.3622399298562629
1.3207136914644497
0.3647890698362557
0.4828157481980876
2.2103820693395946
0.257160973223386
0.4502229960334546
2.217318455411846
0.2581780173100614
1.085956250434569
0.33642734551539594
0.3383526512992514
0.2537476486681927
0.26214904433599623
0.2583727429749348
0.23290243157028737
0.26379684830873734
0.4323442049594322
0.29918756446425343
0.22824293123227446
0.33530422885312233
0.26679319789205447
0.5872936800328706
0.4491965160035541
0.2550620546878772
0.2665233265673395
0.2728854259223479
0.2325720986050559
0.47724996541508724
1.149975870018894
0.2689633155850151
0.35562886384676134
0.3876757352748632
0.26105368677523116
0.3452193087531156
0.4040411256062218
0.42527830164224234
0.5666242052217122
0.25506729477469825
0.5307238537762194
0.2576292109336891
0.5124285766721537
0.2651904910197617
3.982909242152736
0.3597444302906628
0.27078148155782283
2.4543802277986146
0.34146425032806665
0.26630094057493253
0.37533309405623755
1.9269385729880366
0.27532324796876345
0.3237388393429348
0.2792493894864856
0.28028388384417285
0.2739765387264389
0.5117951278317081
0.2468778017688712
0.3614463242696535
0.23952531850612824
0.36181462992144486
0.2814914741335368
0.48601702058986357
0.4237663509905492
0.47415304880351683
0.5812483273495281
0.2688423945197497
0.3518330729949854
0.2556348889377881
0.26767034754693286
0.4296219387330709
2.295494490083363
0.3500129974284315
1.213772101364347
0.2661168745786461
0.2799544702675305
0.25352089634285696
0.26885277061357493
1.296771651776745
0.40481535567025007
0.22496355031423831
0.287733234607117
0.2585034742977455
0.2734663023788947
1.4777063202130647
0.2696536777738648
0.45583509909593184
0.262395633406239
0.3928010272027195
0.26915743410204884
0.2695148425774083
0.35766340457637186
0.5339948278658584
0.29754476492845466
0.549155946284963
0.27501872404578226
0.3906093500145868
0.28086520733685266
0.27730877155303224
4.004985751252983
0.2624653459847716
0.9321056610682938
0.27247332442057265
0.31600110051161345
0.32887851404518625
1.497317304764179
0.25257542299254443
0.25954146180049303
0.31152153496909196
0.25852309552023267
0.45038574649600166
0.2669977268960188
0.5287365113186463
0.28405455788667294
0.2607916802668346
0.2689238303495822
0.2647408101367123
0.24680986071365624
0.36564215696385977
0.5033041595230808
0.4647649047108917
0.2293321019293122
0.37156587331492447
0.31598063209596333
0.5449047869901831
0.3602720728365714
0.4490443652475532
0.5178957757557182
0.27025357880717465
0.318005140781309
0.24174997233936577
0.2651709867898159
0.27605174616866957
0.25482181312020097
1.2737342878990248
0.2698047193616439
0.5132272990685651
0.29947962372942927
0.308759842733365
0.3244211918087902
0.24276019759977957
0.2722885212750119
0.5182336556813033
0.4151053567544192
0.2694547202417955
0.26506938035528294
0.27014065741600146
0.26121299529224173
0.25988926795619005
0.3593338527965155
0.28304344564331585
0.31285496775345906
0.2573916103325111
3.1245141590588017
0.2501340871664606
0.40525366835710347
0.35220901250298425
0.23733083002457453
0.2975417229536866
0.2843721761444704
0.43934078404190435
0.25262363785384034
0.5230990927549939
0.257528493144112
0.2318614690738751
0.304338025382053
1.7457735641879861
0.23784698078662975
0.4130413153357944
0.33245554283863016
0.5722135092995931
0.274356767170431
0.6071404653132471
0.26485105686247856
0.22664652304128774
0.3227390927592325
0.38856519183536703
0.5401203744120282
0.25715708378105234
0.23548977953883088
0.2307152251918597
0.32733293187294976
0.560483500681387
0.2863435346484012
2.703163792246076
0.2808120526603247
0.5552857221911386
0.2449850150400585
0.30849704594067756
0.28004182900074936
0.26080495398558795
0.5216524374781495
0.4253764529203016
0.29866551715769724
0.5413291455043368
0.3216423385860764
0.2414722875786839
0.25785074768592237
4.719696051792545
0.2635955851558257
0.2796958041304911
0.3262010281293227
0.3159022062210853
0.3036654559004685
0.261566827800802
0.3522280230359313
0.2713466798054934
0.2518143688828209
0.23071522519186036
0.40579542812246916
0.3028562477454795
0.3570956449998108
0.3531538699627469
0.2726573625096744
0.3550579542445406
0.36848441092943707
0.4483694033013189
0.49376174573336895
0.23071522519186088
0.31505458446121093
0.25755885334546075
0.2594838384501254
0.5819641172928076
0.3084423591217998
0.2453251855573076
0.430747148581326
0.29095246695343063
0.3258393996793811
0.2640750936970472
0.5664794860975663
0.2673542167461363
0.32841827260525164
0.23966288791849566
0.276548365031605
0.26473678877054774
0.2675156442150409
0.5248540810775049
0.26769570357091266
0.2923062334568303
0.33933397620183103
0.25952199271900794
0.4684642229678807
0.4447792286214627
0.384428131107127
0.2709328143924402
0.2748688132565789
0.25828791616809904
0.3806071865873435
0.30278135266277906
2.3034710914926664
0.3841966174983551
0.4468107390627141
0.23071522519186088
2.7479301922834694
0.2814912991378971
0.30450531368350364
0.3536500357091441
3.428172537601868
0.32373968238769196
0.25795367299633104
0.2533913921011275
0.461472124635048
0.26171110823628185
0.2629202031220911
0.30541437822423817
0.29979496304119346
0.3087015517562383
0.3105405609926155
0.3197012912494708
0.48746061444821503
0.3144050550160228
0.46335627531163226
0.25906372402749916
0.24719471738234577
0.4551718989421336
0.3675137988668521
0.2431491525981229
0.2604952984568216
0.26509630779029936
0.5284378435010479
0.44562758542625686
1.1880158470046172
0.4072968317569138
0.26481113356072583
0.3572462650138195
0.4910114291909632
0.31939606757945366
0.34819787091249915
0.2758638372825246
0.5104996348678982
0.43251317774685855
0.3310851580990208
0.36578850353510134
0.48039688450854295
0.2652703000656225
0.5640153765047546
0.31098162424182374
0.43997728561758803
0.3590779448909616
0.42273783416060473
0.6004919214519028
0.2520679179965148
0.25769737047013436
0.4352835959387507
0.23636342872458166
0.43118622591856276
0.4051018460385868
0.4838591839259145
0.2678238165809585
0.30552856278670093
0.2960998577132205
0.42820143624772133
0.270403133334783
0.9604118842375334
0.23768673761683667
0.533267285689257
0.2529246700020672
2.6532059185212895
0.3591262656954981
0.30910585034594396
0.2597583607814805
0.5113292565309789
0.2748878893373439
0.36170739300903393
0.358251937975501
0.34425541428198286
0.24804315113332578
0.26068593574173
0.2970606931984398
0.27554936883103776
0.5203843009571595
3.819814444365051
0.2547834319502936
0.2741094183480908
0.2295105165683735
0.2541034291261662
0.2977361064552532
0.5170118521103687
0.3146744289532466
0.2699642991569741
0.258619538776673
0.2738619894064241
0.30777623144856214
0.26462378445511947
0.27554283689011894
0.3676511439556631
0.2674866796927291
0.5711892760107355
0.4713712648584004
0.2555908042443284
0.46486722530574043
0.537114311292924
0.27459101576551515
0.2601553547119437
0.3542797062631077
0.24361820097276302
0.46424434702001094
0.27265550521749476
0.3809165548588415
0.23647122237500964
0.3193320052288663
0.2652357775065361
0.3859347267850258
0.49317599464222456
0.2988297341272188
0.2970060598300118
2.173099567543194
0.2674229007090097
0.4367406726705312
2.326913897367791
3.9214614502117517
0.28931220347900677
0.3247204269343846
4.155975424356591
0.5270179629001087
0.37643907887988826
0.46737873343048303
2.4265748064863613
0.24156834886841436
0.5584217158126186
0.3423934714852857
0.27671549223550096
0.25447561418386083
0.46360201243545457
0.28087541729017107
0.28874813967841123
0.26113372853774924
0.26626634607993516
0.485514212011973
0.41432818110689873
0.2578096502100383
0.2625637570640588
0.2570175327311506
0.26748285829960233
0.35461010349230976
0.26222825923060505
0.31939696130093054
0.3284102549687243
0.2765650337998789
0.26650754466243726
0.4979855649357578
0.4723107840732007
0.2732709244573332
0.5651665829209694
0.3975556718547122
0.22881473321358672
0.283827269617941
0.3358494974089121
0.26462316788408435
0.2496973437919285
0.4396234309791635
0.2459899498081112
0.26801943574812775
0.4278779912369618
0.23482635808974078
0.39068016418545937
0.3784893395146693
0.4138170722337473
0.2738402158894964
0.29443231331661196
0.2600579708510026
0.2778265656893982
0.23104797371470057
0.4273357210406881
0.43157899556632395
0.23097716269631388
0.23507886183565588
0.4276367161276283
0.2680914187079795
1.9075698444968099
0.364170165070629
0.26681832844561587
0.2666496783396604
0.2674681488503382
0.7391017817471833
0.25371679573476763
0.2595091698107866
0.2587539662464495
0.40753925282121517
0.5426497105646867
0.2547982021142604
0.35385110717361373
0.2530923742029149
0.2823818111785174
0.30553431951514765
0.3477676998175677
0.4838833053770979
0.26511627321754005
0.4642287019804957
0.2779209519062833
0.4266355267565254
0.3860366943230162
0.35563545059093427
0.23543790236168202
0.2671190172085296
0.26260334461987905
0.3464838640599706
2.2300125608350263
0.26440143654033005
0.2775249357329425
0.2289314265166324
0.5826287285253261
0.30792331794653766
0.2900611669147725
0.2355536091681951
0.5085420967943239
0.26236520957147375
0.34011492775663055
0.33201536499155526
0.2786627027853687
0.5151948677044361
0.2679245447914006
0.3128817919908476
0.28288545379508717
2.0869927647563604
0.46070989351546643
0.40210962507426296
0.43351843133584655
0.3078898011295029
0.2510747948981017
1.4941652243331427
0.2790280137151384
0.39717885658353036
0.2717497777315283
0.2894052503890057
0.37602860199186877
0.31076271521589777
0.4104014121613553
0.32302071494099444
1.6856582803183724
0.2593720078616017
0.40547647988958424
0.28840826431663785
0.3158325595465758
0.3158131598376312
0.30698459689724505
0.23573856316456632
0.24281574947402332
0.5034175875875205
0.27057667782729694
0.2629243380435113
0.2825606899098185
0.33833750895943515
0.25087492954489726
0.47199511142828315
0.32856825808667484
0.33752648730114715
0.5364890785572015
0.3205548449599719
0.24972304722685607
0.26423257116093046
0.4413811863301465
0.25674487504637244
0.3715047421892106
0.2627566479342651
0.27258610924562726
0.2761804203366538
0.25171503075969487
0.2497138058660047
0.23115854474994912
0.30153580848885714
0.27424569486342354
0.4512028710944424
0.29138518058675006
0.3809115391937245
0.268873620035866
0.49846437489902795
0.5414333277804917
0.2430049955346166
0.27122156346013604
0.23474123802324098
0.6031628329284044
0.4138937875095497
0.4246990220321797
0.2629580964306039
0.25615406260639917
0.2684258648010047
0.25377762443425855
0.2679887061123533
0.6667411601512755
0.28649191816544084
0.2266838082189094
0.6069220795664536
0.44486613076170195
0.278698373973534
0.2825284453318926
0.2615688417167702
0.33287777789424167
0.4504948174060314
1.6819149907414275
0.36269864418322295
0.26027277285125133
0.4365191205862523
0.25691955872831496
0.2601108560242611
0.44222214983836716
0.3419483527975675
0.2596484309680928
0.5507905065419835
0.2373723015002164
0.41802011151328344
0.2632828661093991
0.2829141155120678
0.5594049921103827
0.26400139721604254
0.2650819759092702
0.3525239265033816
0.8411149315849379
0.2734387573790058
0.3425589321402844
0.3354020609679166
0.24350270378421007
0.4911186654040766
0.24830524663587364
0.2845521362466186
0.45882028678919906
0.44613627513794213
0.385381011400575
0.2399279327923058
0.2723407720901327
0.27461828582273745
0.4539913554901482
0.2960908092306317
0.28113195973555855
0.2731774038284835
0.48024992811814665
0.26824862068574046
3.6488544094688575
0.2556614798787044
0.3704500899390829
0.5668731393649141
1.0389569387357944
0.26793561041216707
3.0161795948191035
0.2812073550514827
0.4231273167130084
0.2650831481405037
0.40970955753828153
0.24320355624904552
0.5179322237998499
0.27752972312577145
0.3866375987826646
0.3198382429256899
0.4374626360452918
0.23691323665292655
0.3174281430723506
0.41982117121681645
0.2964920350519075
0.2553518254779687
0.5571638839760286
0.25702187586859865
0.31430228701683943
0.25637843678658695
0.2578769662501512
0.3550552265137486
0.3686263632583997
0.267971399403407
0.2514612548617888
0.2913703737902167
0.29284097982402657
0.2953482391691923
0.33902249321041705
0.2656174792358568
2.6829334917818684
0.3145356843490165
0.5793548381607965
1.7351439946619864
0.26965448585466006
0.36627227703583876
0.2949638893041144
0.2570370626878284
0.5380241641339404
0.24849981793637815
0.27462595294339165
0.25227438048229595
0.2572295898653558
0.2584836373819657
0.5891707442881193
0.4478022753034112
2.0272053554259393
0.27978688479079217
0.29140491218465553
0.24207395202314666
1.0276290698437491
0.306060105801953
0.3130966815415018
0.37365670680502716
0.5319405992568211
0.3083528491504249
0.3471291257668708
1.6190866604019727
0.4042742110557984
0.26728067695210384
0.2620953589171869
0.26198154501995796
0.26839393067223977
0.2840706269553861
0.23998189102568535
0.7948042877561653
0.26628515664336283
0.4458773698165536
0.2700357344271536
0.2854882816443696
0.32651059028039214
0.25885061437593854
0.23161095199373144
0.2604284413054794
0.23149420883378966
0.2542386739261531
0.22835115081097132
0.2717210935478732
0.4017002404683453
5.568736396556876
0.35564769819491726
0.27069772718058327
0.25991529111839146
0.2897023371508722
0.41869798575590267
0.2622837765806558
0.2752791403692578
0.3460431136854604
0.2669016656115883
0.45513509841019745
0.22340931541569772
0.3194317393461131
3.2342960742858993
0.34308001534560245
0.5255696719572251
0.2533410108378619
0.23890921569950188
0.2595029277921786
0.2650460191969369
1.1222532564421202
0.4644208412081318
0.3671143941978439
0.3175000511071189
0.5127990414060413
0.26063740806411523
0.26995158580227857
0.47500644961967586
0.27006519437939586
0.2673739812768974
0.29031352425828133
0.27675506865395005
0.4069135801679497
0.26161698985450027
0.39172035862701665
0.4738740316882361
0.5473413726616677
0.2551541637822062
0.2978442867515799
0.2311234407205609
0.32311605316519604
0.33782810471121544
0.2392151043086441
0.5708005903476954
0.24000334995557715
0.2619233741996276
2.2697165470399487
0.26283138801477657
0.5096298196668371
0.295579704824001
0.3737641938995342
0.2660835253552717
0.5986690312348587
2.841960740625926
0.5517460479251397
0.34768153149195086
0.25338397726456935
0.2683788186374295
0.30910142710789584
0.3619987571840876
0.2782746701921886
0.5371284182774029
0.3368540265673169
0.2545169145586248
0.2918019530967423
0.38717205489344947
0.25816017062737184
0.4603374688746218
0.268914636168427
0.3415384244991774
0.3809059172574226
0.5259489105246382
0.32801044238703697
0.23409686281608805
0.24767947643547286
0.26235421005109305
1.6098660310991852
0.23737131892978547
0.4662272245305501
0.43465975071241836
0.31663125780781337
0.2488399093999699
0.3030918400330303
0.5834068352038129
0.3235956400728889
0.2367227545769651
0.3950896704407917
0.25818038513688396
0.2717724703194019
0.8329647029822949
0.28447432736437733
0.48144618576972165
0.2573330557005005
0.35946376361226073
1.1086001275711654
0.26960137018029345
0.28727093171076207
0.2709614529303356
0.2658003265722037
0.23250395509584085
0.36102875258232475
0.48221835278151776
0.23849648031852894
0.32339203499882563
0.2708192923843582
0.8077082226400348
0.2958224315172711
0.2652537396241246
0.27443690023528866
0.39875176355321085
0.33817922228691294
0.25737025977683325
0.23452221346817007
0.4812806053594286
0.25718726242111156
1.2718172220232178
0.41912903323959516
0.25874655161162474
4.093989802472057
0.44372502891069077
0.26498687849394303
0.43845248141294174
0.26741732563799236
0.33547580393227733
0.36848212336168346
0.38341719042885264
0.25002463945041126
0.3167389656745496
0.3461279938130213
0.38687447522377216
0.34204327889283087
0.42190667099850493
0.2853218067384043
0.2541578206996312
0.2651193575224493
2.9077237216413296
0.8690471609490455
0.31126466338426506
0.25983021449799
0.3256501806802828
0.29284256478376647
0.3266947778433726
0.3218738065139727
0.2545392496474063
0.6241445585843259
0.2183013350019433
0.2809665292389024
0.2778062628306655
0.2662877317010903
0.23071522519186125
0.26047684618401296
0.3001304034340686
0.2897786155596776
0.4464709486387041
0.3507096490552525
0.2805807635025991
0.2523978070870376
0.27136389089714424
0.23726620736337994
0.2597188776562664
0.23047519714144596
0.9050840346916372
0.27383331196935995
0.3481444975668168
0.2746792767970212
0.6039423826842575
0.2581968931822148
0.5134177738821804
0.39033906970847876
0.2514002061248403
0.25454194604633135
0.2672781113494978
0.3464583119210185
0.310748485879772
0.23935182015043843
0.3366168750346357
0.4689321942623827
0.5693881427099414
0.3440199342094418
0.2618624423595332
0.25932367715448273
0.25426261829303093
0.27765910385878095
0.2628642863501926
0.5130980899308684
0.4245190840530761
0.2660717931677839
3.550615046970788
4.196442802153606
0.5138190648458701
0.2329914837612881
0.23720147185448015
0.28555466889729203
0.3121055102511024
0.3647550579955433
2.60685324031044
0.27192038964458576
0.29634092210459384
0.2538856165269429
0.2671739968445722
0.25918405126399535
0.29014798152071
0.25986021995438435
0.2633243269384579
0.31095827321967734
0.2974721685787471
0.2552293345804715
0.2971701056294123
0.4588256844408032
0.5057320859741165
0.26237011431397145
0.4162437270489326
0.32861630626874083
0.3274850474717181
0.2638121809400791
0.252070776466697
0.23071522519186088
2.967408034579571
0.28711382280663045
0.2623841427122228
0.2984087458229052
0.25910389418740615
4.0712203950293135
0.2587118255053695
0.2887015456780222
0.2739105033594399
0.2574500930655114
0.3547413541906273
0.619058611900407
0.4091885820573272
0.30749873263067545
0.26192262257619287
0.5372295885008705
0.3522570250341646
2.2857502163712695
0.2787180409992588
0.23383281384506321
0.2643237054864652
0.46339036854516613
2.474619592426331
0.3938358838817898
0.3380761873039428
0.2407427989666108
3.4868153072845205
0.4472971259278229
0.25216699173774193
0.23382658375889315
0.3961025511019466
0.27709461298526883
0.3129451563082828
0.45189042682195224
0.5450989586889353
0.24841330558701674
0.3624570390497565
0.31776768473667966
3.7493351393082106
0.28140062011881106
0.310390375923103
0.25996231214083054
0.2655695577718574
0.5577380654659773
0.5100510170729485
0.2471135490297085
0.36907860822984817
0.43499675212508
0.283217652679296
0.3322021955777097
0.43702004506095427
0.23334528046568837
0.3251103568370199
0.45710786925705477
0.28098189904275345
0.24601607904431289
0.68950867105915
0.28557043002589916
0.488777047212367
0.2550427076632829
4.579017877680356
0.3562374097421725
0.25768876306650335
0.34516244957906844
0.3911125101122989
0.27501585724282085
0.3247531977733226
0.32003696398853115
0.4141154177231638
0.2807843458247793
0.27668900466477164
0.2685277513592179
0.4476640353114394
0.25042173341802665
0.2814567979053842
0.4817085141473141
0.28570200955071234
0.3601632619499555
0.4151884110849005
0.4764579315164927
0.2794758162592065
0.2671012709027155
0.39071017683411946
0.26737894890485975
0.26295966535601695
0.37393877821028765
0.2763924490011431
0.24247378981270853
0.25332706169357116
0.28042257173901436
0.2698497607834224
0.2652191026315414
0.3567448018249325
0.44569215821582936
0.2577252775420174
0.3310441989833309
0.36368434150945755
0.3680568537704034
0.26228582957363517
0.2476741741460691
0.25517873076190317
0.36015065394699736
0.3659985014645701
0.262371112320782
0.27214031551051976
0.41742536378412626
2.0281317066789772
0.3092369190813349
0.40666199813501613
0.42894869718764217
0.2907015622908888
0.26299110392902164
3.0011977079970578
0.26947201580365765
0.40959464267271833
0.29829634511221437
0.26088398388424033
0.47785785010939247
0.2723182822745027
0.2510746429534798
0.31335741064874356
0.2717127797943091
1.832519573567295
4.8391419809686695
0.4314418690554184
0.26364942943124187
0.30910226421154174
0.4186998101357882
0.2579135434652618
0.24282398024373913
0.3668798688864401
0.2732849569926182
1.8022440778267186
0.45080538911922846
0.35184694484362683
0.2695073863876101
0.31718930707169884
0.3747769492007011
0.26705416026331324
0.27555181761002856
0.32073027813161575
4.139515703518977
0.2642597312276145
0.32921715381489147
0.2858199635824264
0.2303693660773703
0.25884984657064203
0.2570182001456115
0.29370209993695867
0.33763451478811185
0.3798035790987785
0.2764547793145164
0.4060196397089194
0.27624587885973284
0.23140439466917773
0.26979536850749686
0.3046284593365634
0.2519121943464681
1.0018997949511195
0.2687564883110501
0.28790855417145184
0.35992468992115956
0.24345454380455894
0.2823948791860975
0.32375479525828116
0.5519751758671133
0.3050906246441286
0.2721827585101699
0.32354703697425924
3.788241891805036
0.3224170686292193
0.2546503173804491
1.865271324285175
0.3763416336859199
0.34907682044030736
0.3721842561530058
0.2806492751546014
4.767975971732245
0.25988064738803474
0.4519150077653688
0.2855463618115254
0.2504523476205629
0.2517902510163148
0.23071522519186088
0.5275067377738569
2.2148205012531683
0.3668659440186015
0.2595984148295395
0.31710291259115464
0.32501302440621127
0.24771711505390825
0.3809467433433948
0.2387917981890748
0.6404400896223557
0.33032842806471946
0.2633908791411803
0.44876287446112145
0.24886016923008702
0.5097909926476081
0.3389784488778689
0.2541533138625077
3.715117530887661
0.30036377802560416
0.48566374591811307
0.4784321936178025
0.38943414704742446
2.5121876132190555
0.26422197255188234
0.3325788368678229
0.26445685705882827
0.2572213770693437
0.6257111723982701
2.0471583608236656
0.26431383365273015
0.2708128102310917
0.2642739420059089
0.2676446876190872
0.8690471609490454
0.26523287301742415
0.24872696410302272
0.29027350585471995
0.2805520049202004
0.2687398069304416
0.2604501753610661
0.560687988008569
0.2737299021737949
0.2682238542081997
0.4100521540298052
1.9229815792879494
0.27290732178773436
0.25842828726677103
0.4261891417778986
0.5379352134227772
0.25539177739915525
0.25486815800225376
0.2673173192563782
0.4812071828501255
0.23920152055367438
0.28555754635558694
1.5287448950122675
0.27605615157383945
0.25458648456519617
0.26846434356681587
0.2634090283187752
0.2673676723356454
0.26416272930202295
0.3124005393194849
0.2306094776209367
0.2743649435948466
0.2633643727511862
0.2644330030176
0.39332051223145725
0.31404777290699026
0.2986465194110452
0.3087479080698212
0.28492142586346253
0.27168527266162196
0.2617989098105709
0.3775468253667499
0.2489246910496123
0.4029747530318977
0.2382595546018904
0.22754699168884537
0.3660974828120363
0.5574892926663657
0.49068037254271296
0.2592542974760128
0.3734742687182083
0.29168747841981746
0.2422426743651439
0.28759398707465766
0.5060032024392787
0.26906941862409645
0.2644550327406154
0.823855578766962
0.2753154404998226
0.2600940920528719
1.011526892001924
0.300844605732452
0.8690471609490454
0.3195129712258647
0.3622819859331801
0.274365372628671
0.46184149937897956
0.3751526142327239
0.32641923861006306
0.3101586468166321
0.3662439425018432
0.3225903140421207
0.34093343237701146
0.26711768285737647
0.3277064242248949
0.41569356373041794
0.29489379350957884
0.2924707123214742
0.365274382113969
0.40970840488574395
0.3579184064347413
0.25312277416492496
0.27794402287845943
2.958252202882759
0.38943414704742446
0.42348299332045813
0.2699535196086588
0.3440301421323756
0.2508779027602199
0.26669476131655606
0.38489056465520705
0.34691962005135024
0.3567101743402224
0.36382404476944763
0.37111595250002977
0.2799904103730844
0.45329856066665725
0.3424435377419584
0.32397835429433014
0.4331295678366538
0.46555861909927576
0.28726598002111586
0.3282121672118783
0.37277686531425896
0.5930122465236572
1.4657731734838864
0.26799626208680516
0.3635331713415488
0.2437097774024394
0.45154320731167347
0.4415840850906774
0.29507385516119305
0.25824200218186927
0.41481078715708897
1.7097262730696259
0.29358051590246986
0.24550265623573114
0.2549681344368201
0.24049396272937418
0.2616444456041231
0.26934029214381305
0.2657927256997668
0.26541928764123107
0.48467630526554406
0.25697552968695847
0.24195132410944384
0.2662755415288016
0.30585793038025283
0.2495645769349014
0.27936769555142443
0.33726988632376037
0.38035469207056904
0.38757241275974685
0.28936098548051575
0.2380055048627844
0.6989535120077088
0.4008961790813123
0.26993319764278045
0.36705539803176296
0.33035601352821864
0.27366892321967995
0.2630018578762381
0.30538440643123077
0.2652724858433942
0.30179717276182866
1.3120202064557955
0.2679813841757439
1.2748654343009314
0.5237378904135954
0.26536561340316067
0.6920021158043012
0.2673292927006959
0.28470357595087786
0.4844894826803453
0.385481991872761
0.5706491794843447
0.29927463154078343
0.26738935556901927
0.2340433236900753
0.34110103546322196
0.35001931874439435
0.2604970034269365
0.2255526790299502
0.3736619479543846
0.26203239759324115
0.2627445768052317
0.2695815948131799
0.6066940382003455
0.3542466930690717
0.2847364259352756
0.34193446282668616
0.27105195393111214
0.3830353571995016
0.43231514896105916
0.2790081415645425
1.165188356727119
0.5072436183838329
0.2638692977494566
0.32261276272609096
0.4756742884245609
0.2705070143961401
0.26147205733966633
0.3740796235238835
0.48982865607980536
0.2811065762501364
0.26421905924200106
0.4282756779255989
0.2659112598694987
0.5260242571080515
0.28894648902358966
0.26335319387220546
0.36337538450632445
0.2890606472345446
0.2666218770026902
0.3012949061125393
0.3987204438061005
0.26380435838673577
0.26385201379175083
0.3608482621247533
0.2811871455432276
0.4414309113269019
0.2832963585989739
0.3262509018544489
0.2635419873275093
0.3306862034870181
1.774161508447134
0.45072300258510395
0.27159628283236653
0.2733231201319198
0.2702304904007612
0.27799702099696766
0.4034017106220808
0.3423019823327156
0.2674911566514966
0.22821658361666697
0.45995548286378957
0.2561123474336089
0.2637103851182776
0.547689038032759
0.21547549004854633
0.5126792867222991
0.3550148146697308
3.502251728210995
0.2778272768125043
0.26847599684337947
0.23278678870840036
0.2423517028422532
1.9075698444968112
0.5351588533457278
0.25854896219311135
0.2417512311094347
0.26054948634602926
1.3493027116312544
0.25544596786609775
0.25712742933981014
0.26648820036131704
0.3521225032733209
0.2579533889346456
0.48986892830025774
0.3128177039308385
0.26872208158178607
0.2662253732442863
0.3930392774520556
0.27160107716782983
0.26681685206459277
0.25650305362536197
0.27066770968402
0.3500289397232521
0.6382186052805581
0.2728011749102899
0.2878090650737144
0.2658858488886271
0.23040069628947016
0.42061997693093894
0.2951407573906119
0.27850923933971383
0.24947745882191663
0.30486713384338676
0.35379212907324825
0.2809877089309922
0.25806556160470695
0.39330314686661977
0.2677423433369845
0.2729444586104655
0.33403500381182094
0.516346761819373
0.30031110178101017
0.35404086452288863
0.4587800530634015
0.2565260571868093
0.2618165650585765
0.2575245164001208
0.26506715925854785
0.2266975052266769
0.41234398360478347
0.29075085572655796
0.3494276015726629
0.2669557365260501
0.48359440165746503
0.2633365267392092
0.46276074911794035
2.0329366680024332
0.4533483159479265
0.26345175117667646
0.267080082475579
0.26434430343028753
0.5349348010872523
0.28945877620332366
0.26895288142864404
0.42874056974730274
0.26087980792041027
0.3896457495183033
0.32516425743944183
0.27364429525073486
0.26670596624305115
0.37485531020659735
0.2653278579714422
0.26493283902114734
0.2772324854795022
0.41326767158244354
0.4385060958603136
0.26565593137183374
0.33873941195473584
0.34909188953021225
0.30400161942387094
0.27014260914399674
0.2677143963145876
0.3371725048019264
0.26426384728180696
0.2674084498881186
0.3081106948862607
0.26946207252255516
0.26082511956418275
0.25560919147997163
0.5532699972575572
0.2738229729549053
0.2711684389066054
0.2589432070839924
0.26815623182981935
0.26806645943395957
0.3527493858362794
0.26438686564722497
0.4551369657115339
0.3823005694184174
0.2748902586371671
0.28109621762814474
0.43000391067590993
0.3275112894715685
0.28916932175313664
0.2661053516263842
0.5961315068948149
0.2573273361905763
0.5295208055288292
0.25938549561984786
0.43624066328586425
0.25516682761579823
0.25579607169023993
0.4330852310849632
0.3145488407938324
0.2672937548620329
0.46759456987547887
0.2769309593205983
0.4835083033720909
0.22063673835024594
0.25508812280719045
0.3400807515442269
0.23672839021705896
0.29765624385572187
0.2375795868369014
0.2335487763517762
0.3599940206103523
0.2566059761889452
0.538385092197133
0.5066074526952148
0.23893475245365856
0.27913028431326553
0.2609623606895455
0.2681440099849621
0.3094946347996031
0.28824041310562387
0.2756425161844929
0.3352609440419362
0.3504045055389883
3.0744746225982613
0.2566149955763042
0.4411857530055571
0.24410173576062885
0.2559296044389022
0.24021405434945556
0.33068348236617473
0.23646210822371197
0.28156591126339947
0.9147748395301838
0.34697003731365006
0.31889954132193044
0.26114657068180147
0.2852883094002827
0.2747407550128852
0.25932336653180754
0.2369388252312288
0.3529390741547202
0.23908886694828133
0.26822809052304214
0.3069967242007992
0.24081329441657
0.2590908666363504
0.2366044356485625
0.23543395389503477
0.24935169294410017
0.23040069628947016
0.24746083214496356
0.265519975708133
0.23735255849720308
0.2709042925783201
0.24639217535339245
0.2702453436855489
0.23322307075528564
0.23836707216878025
0.3403573689297621
0.23937721547614285
0.4969990490770294
0.33303869491817506
0.40744895643964935
0.28605674886796706
0.27184376842554625
0.32038564416129633
0.30912004943204074
0.3404841160801928
0.384802624749161
0.2679647453524555
0.45887437475008874
0.2819708693422849
0.3266004910784204
0.33697684782968607
0.3131332159294841
0.7693463668291484
0.27577050567604505
0.27608141027784733
0.41624331335840403
0.278384097164119
0.27656047812305945
0.27577262257693297
0.42742488029078596
0.5024381645202425
3.7076590810092
0.2534675410811049
0.23712913025327959
0.2556845508025688
0.37044811051357607
0.2797487765647243
0.24195680039034045
0.5483821588056371
0.3259468286225408
0.25584164197646314
0.4443560500653192
0.35439683630232505
0.25927867294897644
0.3408295640133372
0.2813020705145188
0.26703043773764606
0.4863681868385159
0.3594962163986642
0.27754843080828956
0.32651059028039214
0.47238008115281466
0.3404805766116896
1.1108424806513046
1.8837641806082746
3.3920382318023896
3.787364748688894
0.25969746831081614
0.2601831592659337
0.30986712543380085
0.2790778092358968
0.38689323451495317
0.2955212265352888
0.44627441741311624
0.2771689455914537
0.45169550292376864
0.23406465095033005
0.46447653139644174
0.5488587768244653
0.2854471802689516
0.3380803476222943
0.2444314940275301
0.23716939426760444
0.2776877720123869
0.28578315093079965
0.522017645824851
0.2550911701247714
0.2580618272618471
0.2835871841817419
1.1337525040720173
0.299064428645756
0.2579056419708081
0.32259635061494024
0.3215390286717564
2.006571527316634
0.2638657721778024
1.681914990741427
0.27205997123155595
0.2591221478446383
2.5554082075003373
2.4321862339555422
0.25407897139102886
0.2261309795614664
0.22675355284744336
0.23170177153226007
0.7248617328711126
0.2616957868281385
0.3322041704312964
0.22739996799536874
0.22697382288498213
0.2283247261272804
0.23071522519186088
0.22906798873352088
0.22847999877310646
0.34465151605224975
0.4551510160438373
0.2706209187977236
0.32929620666235254
0.4201302564418614
0.277875929393295
0.4989302842975866
0.22699661069291766
0.527670136781952
0.3028889506268833
0.2596733597417671
0.3266553147028733
0.2683949396146267
0.4979151783983355
1.3850266072439403
0.274443404814759
0.272646752698739
0.2563404116463858
0.3422196773692638
0.4015854738679767
1.4349127175673189
0.23873746498991835
0.40273869453115496
0.25919579283004457
0.2809347951368074
0.2660284127667318
0.2625746743906821
0.3561197162079757
0.30972612651474757
0.281753620092596
0.2625778376626533
0.3565647347413471
0.26333795766014445
0.2582083075126529
0.40410479162742646
0.3284574733644032
0.5110271537464733
0.2656661779348247
2.181888659090443
0.31660988885872615
0.2689999007717376
1.7539124397579524
0.2623070953078668
0.32819199435210034
0.23075989117607096
0.43917877191306715
0.26343484122243677
0.2659482692008425
0.4499981724034613
0.37926739838285356
0.34164523420543746
0.2624056246914526
0.22273800347604075
0.2660013584518865
0.25009436231141274
0.29916319605061586
3.613529696955562
0.27347672905018244
0.3338429049767056
0.28058162672384884
0.4617173380356227
0.2489553149060938
0.3498030479481615
0.25880053145934245
0.3891602861232324
0.27015646395548665
0.4276027297194684
0.6217289245616391
0.46833388288897165
0.523479411415875
0.24613309508260242
0.25768372395644
0.2614141898435458
0.4026275126557221
0.4022017310010678
0.48186940581562016
0.2671531936510343
0.26622787708250956
0.39003031736063093
0.28496292604001827
0.24033591669674553
0.25620014904665256
0.37688620364543235
0.24871067310638964
0.3039640616573964
0.24586985066327077
0.2589535418179985
0.2984797006459321
0.261313350725949
0.24554982575991333
0.24361160413805089
0.5302368499273529
0.28673601657683345
0.9748545495823273
0.2701290995668544
0.2651498588817715
0.4201217866245462
0.25197686836309047
0.3499286144610417
0.25497437001777795
0.25628802198781303
0.5182694335202285
0.2995421955690073
0.2907820340056513
0.23663224088188559
0.22835562670869405
0.2617738131816776
0.26328848605654087
0.3471155499667748
0.7864726931693933
0.38458239945103356
0.34155843417575915
0.44775230268623767
0.27327688812041656
0.31263933399415195
0.25878556944752334
0.8114700584817313
0.24141349100357734
0.264435231717844
0.4549147913704712
0.26791738254058467
0.5802642093083343
0.5386725727750192
0.3002271385597512
0.48241127557309166
0.2591935145568686
0.5216972621284671
0.3678751783879504
2.234804766269073
0.7491819723729569
0.2460815324385314
0.22590700819766638
0.2635890669736607
0.7848783042002484
0.2606951736699357
0.26192154776449245
2.4504273473286453
0.27179327490537253
0.25965224110446783
0.2662864201264034
0.22879679261435526
0.35669193132443067
0.3597505804971387
0.3232105424929382
0.2366231316692973
3.564776077522654
0.4166191920030004
0.5189345013851092
2.629754339911016
0.27069983264837494
0.5183524478202115
0.279700979533573
0.30967574876402215
0.31616596488238713
0.3234494275763387
1.0545136255132643
3.6853287295592754
0.2558817119198428
0.29152091024958676
0.2522758634112298
0.24375715407172774
0.26072123108077777
0.28878318850758894
0.3611389120718494
0.224336191961276
0.25937259032687826
0.27833424258433537
0.40253516364022357
0.3459366453143791
0.45862294088218736
0.5003648500542972
0.2582289014057975
1.0745190176739245
0.2785945521166591
0.2692384294962669
0.2581877737240089
0.2522337530743611
0.34209152684682437
0.26486997966297104
0.5329250695384127
0.25532345682380775
0.26817937442662176
0.6724994070752077
0.2809734275983851
0.28480850306212163
0.2859219937766331
0.27580723629890314
0.26949488626359763
0.24755610275174042
0.2609234473295455
0.31324974878027273
0.4308127081424038
0.26370907856515063
0.2695739989099308
0.25399300688390525
0.25136980528182384
1.5135028246030056
0.888394226297687
0.3130153953668381
2.717748719346668
0.3220832789113629
0.26601259096559493
0.30062139650024766
0.29610388191121245
0.3269102945042812
0.2668948386406901
0.26179245638332355
0.31311364429476835
0.2553773708729633
0.41886526527724066
0.2806140154832057
0.24189962105464177
0.2719265837445569
0.2582227283777028
0.25303066587532735
0.3393506815732001
0.35205546308298724
0.2645343996000939
0.2988429754426555
0.2596745685132516
0.24065239707916838
0.3151005826655086
0.2316482812024783
0.27036927367436075
0.2755406196900786
0.26235273739350917
0.5458660467067239
0.26612516733529307
0.9124525728037288
0.3901560953003891
2.219109169366396
0.2787371600608427
0.26421109544365967
0.3392710538093287
0.33428386336462734
0.30833922887471815
0.29697592556373725
0.5299779318043967
0.26984919664525164
0.2527847183721618
0.2415044161364816
0.6924253466608379
0.4156153976283714
0.34319390381854176
0.2835142124416538
0.2749643822153997
0.4256109756197286
0.2804982515581056
0.26683565395222614
0.2827516838451413
0.264184983450276
0.2772563882862397
0.2963752901715614
0.2657331605506166
0.5073023165326604
0.3164929246205611
0.5414603917078614
0.2570457421655057
0.34984370741513143
0.38353199712772185
0.26524711913486937
2.66965635340357
0.25707623063446855
0.2633752850174014
0.2622918516567456
0.2699308359978683
0.2536844159276812
0.2809511198888802
0.2784966578611615
0.31568870624651063
0.25074818421332945
4.430348442102037
0.27177640648421497
0.34003166108641
2.4053936376670584
3.579395474522712
0.3199651148123365
0.46805387787489755
0.5116548665065097
0.5216423100490352
0.2790168285992839
3.1979752350249004
0.5190146304051243
0.2621354211389394
0.2662638881154164
2.0690897458465676
0.29588673171426266
0.3176507669858723
0.2779226285492431
0.3042836551629877
0.28226896491165665
0.2650761106639374
0.37868460452785246
0.2310507858885331
